{"learner":{"attributes":{"best_iteration":"474","best_score":"0.38769433637836825"},"feature_names":["TRAVEL_LENGTH","total_payment","visit_move_cnt","total_payment_per_day","visit_move_cnt_per_day"],"feature_types":[],"gradient_booster":{"model":{"gbtree_model_param":{"num_parallel_tree":"1","num_trees":"575"},"iteration_indptr":[0,1,2,3,4,5,6,7,8,9,10,11,12,13,14,15,16,17,18,19,20,21,22,23,24,25,26,27,28,29,30,31,32,33,34,35,36,37,38,39,40,41,42,43,44,45,46,47,48,49,50,51,52,53,54,55,56,57,58,59,60,61,62,63,64,65,66,67,68,69,70,71,72,73,74,75,76,77,78,79,80,81,82,83,84,85,86,87,88,89,90,91,92,93,94,95,96,97,98,99,100,101,102,103,104,105,106,107,108,109,110,111,112,113,114,115,116,117,118,119,120,121,122,123,124,125,126,127,128,129,130,131,132,133,134,135,136,137,138,139,140,141,142,143,144,145,146,147,148,149,150,151,152,153,154,155,156,157,158,159,160,161,162,163,164,165,166,167,168,169,170,171,172,173,174,175,176,177,178,179,180,181,182,183,184,185,186,187,188,189,190,191,192,193,194,195,196,197,198,199,200,201,202,203,204,205,206,207,208,209,210,211,212,213,214,215,216,217,218,219,220,221,222,223,224,225,226,227,228,229,230,231,232,233,234,235,236,237,238,239,240,241,242,243,244,245,246,247,248,249,250,251,252,253,254,255,256,257,258,259,260,261,262,263,264,265,266,267,268,269,270,271,272,273,274,275,276,277,278,279,280,281,282,283,284,285,286,287,288,289,290,291,292,293,294,295,296,297,298,299,300,301,302,303,304,305,306,307,308,309,310,311,312,313,314,315,316,317,318,319,320,321,322,323,324,325,326,327,328,329,330,331,332,333,334,335,336,337,338,339,340,341,342,343,344,345,346,347,348,349,350,351,352,353,354,355,356,357,358,359,360,361,362,363,364,365,366,367,368,369,370,371,372,373,374,375,376,377,378,379,380,381,382,383,384,385,386,387,388,389,390,391,392,393,394,395,396,397,398,399,400,401,402,403,404,405,406,407,408,409,410,411,412,413,414,415,416,417,418,419,420,421,422,423,424,425,426,427,428,429,430,431,432,433,434,435,436,437,438,439,440,441,442,443,444,445,446,447,448,449,450,451,452,453,454,455,456,457,458,459,460,461,462,463,464,465,466,467,468,469,470,471,472,473,474,475,476,477,478,479,480,481,482,483,484,485,486,487,488,489,490,491,492,493,494,495,496,497,498,499,500,501,502,503,504,505,506,507,508,509,510,511,512,513,514,515,516,517,518,519,520,521,522,523,524,525,526,527,528,529,530,531,532,533,534,535,536,537,538,539,540,541,542,543,544,545,546,547,548,549,550,551,552,553,554,555,556,557,558,559,560,561,562,563,564,565,566,567,568,569,570,571,572,573,574,575],"tree_info":[0,0,0,0,0,0,0,0,0,0,0,0,0,0,0,0,0,0,0,0,0,0,0,0,0,0,0,0,0,0,0,0,0,0,0,0,0,0,0,0,0,0,0,0,0,0,0,0,0,0,0,0,0,0,0,0,0,0,0,0,0,0,0,0,0,0,0,0,0,0,0,0,0,0,0,0,0,0,0,0,0,0,0,0,0,0,0,0,0,0,0,0,0,0,0,0,0,0,0,0,0,0,0,0,0,0,0,0,0,0,0,0,0,0,0,0,0,0,0,0,0,0,0,0,0,0,0,0,0,0,0,0,0,0,0,0,0,0,0,0,0,0,0,0,0,0,0,0,0,0,0,0,0,0,0,0,0,0,0,0,0,0,0,0,0,0,0,0,0,0,0,0,0,0,0,0,0,0,0,0,0,0,0,0,0,0,0,0,0,0,0,0,0,0,0,0,0,0,0,0,0,0,0,0,0,0,0,0,0,0,0,0,0,0,0,0,0,0,0,0,0,0,0,0,0,0,0,0,0,0,0,0,0,0,0,0,0,0,0,0,0,0,0,0,0,0,0,0,0,0,0,0,0,0,0,0,0,0,0,0,0,0,0,0,0,0,0,0,0,0,0,0,0,0,0,0,0,0,0,0,0,0,0,0,0,0,0,0,0,0,0,0,0,0,0,0,0,0,0,0,0,0,0,0,0,0,0,0,0,0,0,0,0,0,0,0,0,0,0,0,0,0,0,0,0,0,0,0,0,0,0,0,0,0,0,0,0,0,0,0,0,0,0,0,0,0,0,0,0,0,0,0,0,0,0,0,0,0,0,0,0,0,0,0,0,0,0,0,0,0,0,0,0,0,0,0,0,0,0,0,0,0,0,0,0,0,0,0,0,0,0,0,0,0,0,0,0,0,0,0,0,0,0,0,0,0,0,0,0,0,0,0,0,0,0,0,0,0,0,0,0,0,0,0,0,0,0,0,0,0,0,0,0,0,0,0,0,0,0,0,0,0,0,0,0,0,0,0,0,0,0,0,0,0,0,0,0,0,0,0,0,0,0,0,0,0,0,0,0,0,0,0,0,0,0,0,0,0,0,0,0,0,0,0,0,0,0,0,0,0,0,0,0,0,0,0,0,0,0,0,0,0,0,0,0,0,0,0,0,0,0,0,0,0,0,0,0,0,0,0,0,0,0,0,0,0,0,0,0,0,0,0,0,0,0,0,0,0,0,0,0,0,0,0,0,0,0,0,0,0,0,0,0,0,0,0,0,0,0,0,0,0,0,0,0,0,0,0,0,0,0,0,0,0,0],"trees":[{"base_weights":[1.3982544E-2,5.685114E-1,-9.7386926E-1,8.980985E-1,1.7718239E-1,-5.516792E-1,-1.2550484E0,9.2636687E-1,-8.576086E-2,-9.34934E-2,2.3798321E-1,-6.605614E-1,8.0299154E-2,-1.3011554E0,7.132503E-2,-7.651214E-2,9.4191027E-1,5.1908815E-1,1.0195986E-1,-3.8493088E-1,-1.0797597E0,-1.3483046E0,6.5404E-2,1.1838002E0,8.1599474E-1,-1.2853579E-1,7.750235E-1,-1.3402722E0,2.70185E-1,-5.219403E-1,7.431566E-1,-8.304901E-1,-9.545414E-2,-2.4864593E-1,-1.4712911E0,-7.858078E-3,6.334419E-2,-8.923765E-2,4.3722942E-2,2.1450453E-2,-9.171648E-2,1.7887346E-2,5.6724217E-2,-3.5288453E-2,-9.471811E-2,-4.4854297E-3,2.2531327E-2,1.16258925E-2,-4.167124E-2,6.7155875E-2,-7.504075E-2,-5.2423727E-2,8.453639E-2,3.1267922E-2,-4.6210896E-2,-7.906815E-2,-5.157267E-2],"categories":[],"categories_nodes":[],"categories_segments":[],"categories_sizes":[],"default_left":[0,0,0,0,0,0,0,0,0,0,0,0,0,0,0,0,0,0,0,0,0,0,0,0,0,0,0,0,0,0,0,0,0,0,0,0,0,0,0,0,0,0,0,0,0,0,0,0,0,0,0,0,0,0,0,0,0],"id":0,"left_children":[1,3,5,7,9,11,13,15,-1,-1,17,19,-1,21,-1,-1,23,25,27,29,31,33,-1,35,37,39,41,43,45,47,49,51,-1,53,55,-1,-1,-1,-1,-1,-1,-1,-1,-1,-1,-1,-1,-1,-1,-1,-1,-1,-1,-1,-1,-1,-1],"loss_changes":[9.794381E2,1.4753653E2,7.5618774E1,4.749112E1,6.5759705E1,6.1852257E1,4.9465332E1,2.493811E1,0E0,0E0,1.9467928E1,2.8128387E1,0E0,4.839972E1,0E0,0E0,1.7677368E1,2.765305E1,8.41362E1,2.366388E1,1.8558678E1,5.0059082E1,0E0,2.3298279E1,6.325882E1,4.6384598E1,1.7487106E1,1.14025955E1,2.0175238E1,3.188955E1,2.4528662E1,4.3922764E1,0E0,2.3433311E1,1.4594177E1,0E0,0E0,0E0,0E0,0E0,0E0,0E0,0E0,0E0,0E0,0E0,0E0,0E0,0E0,0E0,0E0,0E0,0E0,0E0,0E0,0E0,0E0],"parents":[2147483647,0,0,1,1,2,2,3,3,4,4,5,5,6,6,7,7,10,10,11,11,13,13,16,16,17,17,18,18,19,19,20,20,21,21,23,23,24,24,25,25,26,26,27,27,28,28,29,29,30,30,31,31,33,33,34,34],"right_children":[2,4,6,8,10,12,14,16,-1,-1,18,20,-1,22,-1,-1,24,26,28,30,32,34,-1,36,38,40,42,44,46,48,50,52,-1,54,56,-1,-1,-1,-1,-1,-1,-1,-1,-1,-1,-1,-1,-1,-1,-1,-1,-1,-1,-1,-1,-1,-1],"split_conditions":[7E0,5E0,9E0,4.8559326E-1,-4.8206866E-1,2.8890486E0,1E1,1E0,-8.576086E-2,-9.34934E-2,-3.7645367E-1,8E0,8.0299154E-2,3.5E1,7.132503E-2,-7.651214E-2,-4.4496068E-1,-4.3925178E-1,-3.3649123E-1,7.082411E-1,5.171534E-2,2.8E0,6.5404E-2,1.4E0,-4.3068838E-1,-4.5637852E-1,2.6E0,-3.6218137E-1,-2.3943958E-1,-3.878715E-1,9.9654156E-1,4.600642E-2,-9.545414E-2,-1.2240671E-1,6.111895E-1,-7.858078E-3,6.334419E-2,-8.923765E-2,4.3722942E-2,2.1450453E-2,-9.171648E-2,1.7887346E-2,5.6724217E-2,-3.5288453E-2,-9.471811E-2,-4.4854297E-3,2.2531327E-2,1.16258925E-2,-4.167124E-2,6.7155875E-2,-7.504075E-2,-5.2423727E-2,8.453639E-2,3.1267922E-2,-4.6210896E-2,-7.906815E-2,-5.157267E-2],"split_indices":[2,2,2,1,1,1,4,4,0,0,1,2,0,2,0,0,1,1,1,1,1,4,0,4,1,1,4,1,1,1,1,1,0,1,1,0,0,0,0,0,0,0,0,0,0,0,0,0,0,0,0,0,0,0,0,0,0],"split_type":[0,0,0,0,0,0,0,0,0,0,0,0,0,0,0,0,0,0,0,0,0,0,0,0,0,0,0,0,0,0,0,0,0,0,0,0,0,0,0,0,0,0,0,0,0,0,0,0,0,0,0,0,0,0,0,0,0],"sum_hessian":[1.7859626E3,1.1441312E3,6.418315E2,6.203564E2,5.237748E2,2.5776288E2,3.840686E2,6.143564E2,5.999998E0,1.4249996E1,5.0952475E2,2.4604077E2,1.1722109E1,3.7808255E2,5.9860544E0,3.249999E0,6.111064E2,1.6523502E2,3.4428973E2,1.4959657E2,9.64442E1,3.718465E2,6.2360544E0,2.0633162E2,4.0477478E2,4.694421E1,1.182908E2,3.5236046E1,3.090537E2,1.3387447E2,1.5722108E1,7.56942E1,2.0749994E1,3.7708157E1,3.3413834E2,1.19860525E1,1.9434557E2,8.249997E0,3.965248E2,3.5944214E1,1.0999997E1,5.566632E1,6.2624485E1,1.7486052E1,1.7749994E1,1.0337447E2,2.0567923E2,3.9194214E1,9.468025E1,1.2722108E1,2.999999E0,7.0208145E1,5.4860544E0,1.6472107E1,2.123605E1,2.651802E2,6.8958145E1],"tree_param":{"num_deleted":"0","num_feature":"5","num_nodes":"57","size_leaf_vector":"1"}},{"base_weights":[6.3104615E-2,5.903493E-1,-9.159697E-1,9.692887E-1,9.3549475E-2,-6.364149E-1,-1.2505623E0,-7.2195426E-2,9.822814E-1,-4.7783548E-1,1.9006556E-1,-7.15489E-1,7.3483296E-2,-4.1529563E-1,-1.4558405E0,9.9316794E-1,-6.8493865E-2,-1.6240226E-1,-1.0596702E0,2.129779E-1,-8.2793765E-2,-1.3156538E0,-6.4163035E-1,-9.2667794E-1,1.240037E0,-1.5351576E0,1.0382704E0,1.1741577E0,9.1480297E-1,-8.0854475E-2,5.62301E-2,-2.6398155E-1,-9.1708206E-2,1.5485932E-1,1.0006927E0,3.9828172E-1,-9.5052384E-2,6.566492E-1,-8.043051E-1,-1.3306195E0,6.889952E-2,-5.4270145E-2,7.739315E-2,-4.6925643E-1,-1.696679E0,-5.743707E-2,8.184785E-2,4.1400827E-2,6.749396E-2,-8.662196E-2,4.8442416E-2,7.546556E-2,-1.0616354E-2,-8.413088E-2,6.448678E-2,1.0634173E-2,-9.2394255E-2,8.288871E-2,2.480143E-2,-6.8457484E-2,5.445943E-2,-7.1593486E-3,5.474636E-2,-9.4618134E-2,-3.2272544E-2,5.3360995E-2,-9.326019E-2,5.7504512E-2,-4.832517E-2,-7.333437E-2,-9.5577575E-2],"categories":[],"categories_nodes":[],"categories_segments":[],"categories_sizes":[],"default_left":[0,0,0,0,0,0,0,0,0,0,0,0,0,0,0,0,0,0,0,0,0,0,0,0,0,0,0,0,0,0,0,0,0,0,0,0,0,0,0,0,0,0,0,0,0,0,0,0,0,0,0,0,0,0,0,0,0,0,0,0,0,0,0,0,0,0,0,0,0,0,0],"id":1,"left_children":[1,3,5,7,9,11,13,-1,15,17,19,21,-1,23,25,27,-1,29,31,33,-1,35,37,39,41,43,45,47,49,-1,51,53,-1,55,57,59,-1,61,63,65,-1,-1,-1,67,69,-1,-1,-1,-1,-1,-1,-1,-1,-1,-1,-1,-1,-1,-1,-1,-1,-1,-1,-1,-1,-1,-1,-1,-1,-1,-1],"loss_changes":[9.3890625E2,2.2245416E2,5.875525E1,2.2441345E1,2.8360992E1,5.9154984E1,4.8907715E1,0E0,1.845343E1,1.3475615E1,1.893121E1,1.4091507E1,0E0,5.0556946E1,4.7370514E1,8.357971E0,0E0,1.580261E1,1.55144005E1,1.9748884E1,0E0,3.684641E1,6.4303566E1,4.387852E1,1.1847166E1,3.78844E1,1.19997835E1,1.0889618E1,6.872244E1,0E0,1.745689E1,3.296969E1,0E0,4.7419132E1,9.023136E0,1.3683513E1,0E0,1.2136657E1,4.5238037E1,5.190165E1,0E0,0E0,0E0,2.6031025E1,6.819336E0,0E0,0E0,0E0,0E0,0E0,0E0,0E0,0E0,0E0,0E0,0E0,0E0,0E0,0E0,0E0,0E0,0E0,0E0,0E0,0E0,0E0,0E0,0E0,0E0,0E0,0E0],"parents":[2147483647,0,0,1,1,2,2,3,3,4,4,5,5,6,6,8,8,9,9,10,10,11,11,13,13,14,14,15,15,17,17,18,18,19,19,21,21,22,22,23,23,24,24,25,25,26,26,27,27,28,28,30,30,31,31,33,33,34,34,35,35,37,37,38,38,39,39,43,43,44,44],"right_children":[2,4,6,8,10,12,14,-1,16,18,20,22,-1,24,26,28,-1,30,32,34,-1,36,38,40,42,44,46,48,50,-1,52,54,-1,56,58,60,-1,62,64,66,-1,-1,-1,68,70,-1,-1,-1,-1,-1,-1,-1,-1,-1,-1,-1,-1,-1,-1,-1,-1,-1,-1,-1,-1,-1,-1,-1,-1,-1,-1],"split_conditions":[7E0,5E0,1E1,1E0,-4.2783394E-1,2.8890486E0,-2.9938322E-1,-7.2195426E-2,1.4732364E0,6E0,1.2648609E0,-4.0499824E-1,7.3483296E-2,6.6666665E0,3.5E1,-4.4781515E-1,-6.8493865E-2,-4.9919543E-1,-4.735053E-1,7.082411E-1,-8.2793765E-2,-4.877776E-1,-3.793081E-1,-3.022377E-1,-4.1070718E-1,3.2E0,6E0,-4.9063206E-1,-4.3068838E-1,-8.0854475E-2,-4.9634096E-1,-4.7635975E-1,-9.1708206E-2,3.5143363E-1,1.75E0,-4.9063206E-1,-9.5052384E-2,-3.9072594E-1,-3.108011E-1,2.8E0,6.889952E-2,-5.4270145E-2,7.739315E-2,-1.7093253E-1,4.1666665E0,-5.743707E-2,8.184785E-2,4.1400827E-2,6.749396E-2,-8.662196E-2,4.8442416E-2,7.546556E-2,-1.0616354E-2,-8.413088E-2,6.448678E-2,1.0634173E-2,-9.2394255E-2,8.288871E-2,2.480143E-2,-6.8457484E-2,5.445943E-2,-7.1593486E-3,5.474636E-2,-9.4618134E-2,-3.2272544E-2,5.3360995E-2,-9.326019E-2,5.7504512E-2,-4.832517E-2,-7.333437E-2,-9.5577575E-2],"split_indices":[2,2,2,4,1,1,1,0,1,2,1,1,0,4,2,1,0,1,1,1,0,1,1,1,1,4,0,1,1,0,1,1,0,1,4,1,0,1,1,4,0,0,0,1,4,0,0,0,0,0,0,0,0,0,0,0,0,0,0,0,0,0,0,0,0,0,0,0,0,0,0],"split_type":[0,0,0,0,0,0,0,0,0,0,0,0,0,0,0,0,0,0,0,0,0,0,0,0,0,0,0,0,0,0,0,0,0,0,0,0,0,0,0,0,0,0,0,0,0,0,0,0,0,0,0,0,0,0,0,0,0,0,0,0,0,0,0,0,0,0,0,0,0,0,0],"sum_hessian":[1.8167917E3,1.1811328E3,6.356589E2,6.695076E2,5.1162515E2,3.478933E2,2.877656E2,2.9955528E0,6.665121E2,7.3362274E1,4.3826288E2,3.359405E2,1.1952818E1,5.736665E1,2.3039896E2,6.640166E2,2.4955244E0,4.8401325E1,2.4960949E1,4.3376352E2,4.4993725E0,3.4969574E1,3.0097092E2,4.4163418E1,1.320323E1,2.2367033E2,6.7286167E0,1.9640991E2,4.6760666E2,5.4882755E0,4.2913048E1,1.2973381E1,1.1987569E1,4.0507327E2,2.8690224E1,8.984396E0,2.5985178E1,3.3174465E1,2.6779645E2,3.7936832E1,6.226585E0,1.2481538E0,1.1955076E1,2.9947582E1,1.9372275E2,1.2486194E0,5.479997E0,6.8058464E1,1.2835144E2,8.734183E0,4.588725E2,5.973295E0,3.6939754E1,6.7381167E0,6.235264E0,3.9457474E2,1.0498536E1,1.1470512E1,1.7219711E1,2.2491364E0,6.7352595E0,1.1981714E1,2.119275E1,3.272652E1,2.3506993E2,6.7342935E0,3.120254E1,6.7270827E0,2.32205E1,9.734942E1,9.637334E1],"tree_param":{"num_deleted":"0","num_feature":"5","num_nodes":"71","size_leaf_vector":"1"}},{"base_weights":[4.8778374E-2,5.478596E-1,-8.677081E-1,8.497778E-1,1.8549812E-1,-6.0170364E-1,-1.2272205E0,8.670968E-1,-7.559233E-2,-8.006399E-2,2.1142432E-1,-6.9485056E-1,6.766494E-1,-1.2899134E0,6.5798864E-2,-6.814668E-2,8.7898266E-1,1.2538078E0,1.6820543E-1,-2.318228E-1,-9.2892635E-1,8.2727425E-2,-2.8046757E-1,-1.3542522E0,5.465929E-2,1.0008389E0,6.85567E-1,4.992587E-1,8.6873345E-2,2.6286042E-1,-1.2491014E0,-5.5485904E-1,1.2212108E0,-9.986161E-1,5.5604436E-2,-8.090335E-2,4.4397455E-2,-9.6206284E-1,-1.5805993E0,4.091097E-2,6.3933335E-2,2.9864112E-2,8.867423E-2,6.418385E-2,-7.0039146E-2,8.976515E-3,4.625195E-2,-9.560792E-2,1.3845876E-2,-1.3811902E-4,-6.5981515E-2,8.4578864E-2,4.7663756E-2,4.5013007E-2,-5.3373434E-2,-5.7099562E-2,7.529094E-2,-9.217227E-2,-5.830974E-2],"categories":[],"categories_nodes":[],"categories_segments":[],"categories_sizes":[],"default_left":[0,0,0,0,0,0,0,0,0,0,0,0,0,0,0,0,0,0,0,0,0,0,0,0,0,0,0,0,0,0,0,0,0,0,0,0,0,0,0,0,0,0,0,0,0,0,0,0,0,0,0,0,0,0,0,0,0,0,0],"id":2,"left_children":[1,3,5,7,9,11,13,15,-1,-1,17,19,21,23,-1,-1,25,27,29,31,33,-1,35,37,-1,39,41,43,-1,45,47,49,51,53,-1,-1,-1,55,57,-1,-1,-1,-1,-1,-1,-1,-1,-1,-1,-1,-1,-1,-1,-1,-1,-1,-1,-1,-1],"loss_changes":[8.221274E2,1.27147644E2,5.9865356E1,2.7261444E1,2.4897615E1,4.4073914E1,4.4512085E1,1.7909729E1,0E0,0E0,2.3371107E1,3.6831406E1,2.4215733E1,4.173993E1,0E0,0E0,1.41094055E1,6.6811867E0,6.791181E1,5.5176308E1,3.3356506E1,0E0,2.281638E1,2.1215271E1,0E0,1.83833E1,2.254995E1,1.59315195E1,0E0,2.593705E1,3.261688E1,4.039381E1,1.0882797E0,2.9691116E1,0E0,0E0,0E0,4.4471817E1,1.5369598E1,0E0,0E0,0E0,0E0,0E0,0E0,0E0,0E0,0E0,0E0,0E0,0E0,0E0,0E0,0E0,0E0,0E0,0E0,0E0,0E0],"parents":[2147483647,0,0,1,1,2,2,3,3,4,4,5,5,6,6,7,7,10,10,11,11,12,12,13,13,16,16,17,17,18,18,19,19,20,20,22,22,23,23,25,25,26,26,27,27,29,29,30,30,31,31,32,32,33,33,37,37,38,38],"right_children":[2,4,6,8,10,12,14,16,-1,-1,18,20,22,24,-1,-1,26,28,30,32,34,-1,36,38,-1,40,42,44,-1,46,48,50,52,54,-1,-1,-1,56,58,-1,-1,-1,-1,-1,-1,-1,-1,-1,-1,-1,-1,-1,-1,-1,-1,-1,-1,-1,-1],"split_conditions":[7E0,5E0,3.75E0,1.6544938E0,-5.680499E-1,1.3979883E0,1E1,1E0,-7.559233E-2,-8.006399E-2,1.6666666E0,-2.6477003E-1,1.4824842E0,3.5E1,6.5798864E-2,-6.814668E-2,-3.1456226E-1,4.7132096E-1,3.8252884E-1,-2.8287628E-1,1.7E1,8.2727425E-2,2.8449805E0,-2.5942078E-1,5.465929E-2,-3.9928934E-1,9.6042037E-1,-1.5666024E-1,8.6873345E-2,1.4607361E-2,1.2134806E0,-3.878715E-1,2.3333333E0,1.8E0,5.5604436E-2,-8.090335E-2,4.4397455E-2,-2.6227525E-1,3.0255952E-1,4.091097E-2,6.3933335E-2,2.9864112E-2,8.867423E-2,6.418385E-2,-7.0039146E-2,8.976515E-3,4.625195E-2,-9.560792E-2,1.3845876E-2,-1.3811902E-4,-6.5981515E-2,8.4578864E-2,4.7663756E-2,4.5013007E-2,-5.3373434E-2,-5.7099562E-2,7.529094E-2,-9.217227E-2,-5.830974E-2],"split_indices":[2,2,4,3,3,3,4,4,0,0,4,3,3,2,0,0,3,1,3,3,2,0,3,1,0,1,3,1,0,1,1,1,4,4,0,0,0,1,3,0,0,0,0,0,0,0,0,0,0,0,0,0,0,0,0,0,0,0,0],"split_type":[0,0,0,0,0,0,0,0,0,0,0,0,0,0,0,0,0,0,0,0,0,0,0,0,0,0,0,0,0,0,0,0,0,0,0,0,0,0,0,0,0,0,0,0,0,0,0,0,0,0,0,0,0,0,0,0,0,0,0],"sum_hessian":[1.7953488E3,1.16263E3,6.3271875E2,6.3347546E2,5.291545E2,3.6518835E2,2.675304E2,6.2949194E2,3.9835234E0,6.699169E0,5.224553E2,3.4081165E2,2.4376713E1,2.6157504E2,5.9553375E0,2.7347229E0,6.2675726E2,1.9684322E1,5.0277097E2,1.1510724E2,2.257044E2,1.1697025E1,1.26796875E1,2.5511908E2,6.4559665E0,3.819472E2,2.4481003E2,8.4827585E0,1.1201564E1,4.72059E2,3.0711975E1,9.467695E1,2.0430298E1,2.1874612E2,6.9582853E0,5.732408E0,6.947279E0,9.527954E1,1.5983955E2,2.3284232E2,1.491049E2,2.2786752E2,1.6942493E1,6.2336407E0,2.249118E0,4.204231E2,5.163591E1,2.1233122E1,9.478853E0,5.5566498E1,3.9110447E1,5.486056E0,1.4944242E1,7.2315893E0,2.1151454E2,8.9305695E1,5.9738474E0,9.569455E1,6.4145E1],"tree_param":{"num_deleted":"0","num_feature":"5","num_nodes":"59","size_leaf_vector":"1"}},{"base_weights":[-2.7973395E-2,4.9099976E-1,-1.017137E0,8.527642E-1,3.6121264E-2,-1.1077337E0,3.0202982E-1,8.654467E-1,-6.8406396E-2,-1.3592697E-2,1.1986233E0,-8.204477E-1,-1.4641788E0,8.063467E-1,-8.09943E-2,-6.4282626E-2,8.7599754E-1,-7.849002E-2,1.4654103E-2,4.763958E-1,8.310475E-2,-1.1287823E0,-6.292411E-1,5.162425E-1,-1.5364951E0,7.894161E-2,2.715241E-1,1.0372536E0,8.060708E-1,3.873985E-2,-8.326475E-2,6.739027E-2,-6.982172E-2,-6.497102E-1,-9.003877E-2,9.294564E-1,-7.6229006E-1,-6.927674E-2,7.469783E-2,-1.6725591E0,-1.1802082E0,-7.8569196E-2,1.1732801E0,3.800651E-2,5.9454866E-2,-6.8738693E-3,4.5748353E-2,-3.2207652E-5,6.747639E-2,-5.311938E-2,3.416093E-2,-6.652271E-2,7.2776444E-2,6.628185E-2,-4.2261336E-2,-7.621049E-2,-8.976279E-2,4.079599E-2,-7.114863E-2,7.8106545E-2,-6.1581153E-2],"categories":[],"categories_nodes":[],"categories_segments":[],"categories_sizes":[],"default_left":[0,0,0,0,0,0,0,0,0,0,0,0,0,0,0,0,0,0,0,0,0,0,0,0,0,0,0,0,0,0,0,0,0,0,0,0,0,0,0,0,0,0,0,0,0,0,0,0,0,0,0,0,0,0,0,0,0,0,0,0,0],"id":3,"left_children":[1,3,5,7,9,11,13,15,-1,17,19,21,23,25,-1,-1,27,-1,29,31,-1,33,35,37,39,-1,41,43,45,47,-1,-1,-1,49,-1,51,53,-1,-1,55,57,-1,59,-1,-1,-1,-1,-1,-1,-1,-1,-1,-1,-1,-1,-1,-1,-1,-1,-1,-1],"loss_changes":[8.868291E2,1.8643085E2,7.1379944E1,1.895996E1,2.9085726E1,5.5782654E1,3.90956E1,1.5382355E1,0E0,2.127033E1,6.1168747E0,1.7589767E1,3.6177795E1,1.2606665E1,0E0,0E0,6.218933E0,0E0,1.9313902E1,1.7336277E1,0E0,3.6673874E1,4.0910133E1,1.9646034E1,9.593689E0,0E0,3.4834E1,6.912796E0,4.542801E1,2.4263319E1,0E0,0E0,0E0,3.9336E1,0E0,2.0597431E1,3.214409E1,0E0,0E0,3.630371E-1,3.4762604E1,0E0,1.4924255E1,0E0,0E0,0E0,0E0,0E0,0E0,0E0,0E0,0E0,0E0,0E0,0E0,0E0,0E0,0E0,0E0,0E0,0E0],"parents":[2147483647,0,0,1,1,2,2,3,3,4,4,5,5,6,6,7,7,9,9,10,10,11,11,12,12,13,13,16,16,18,18,19,19,21,21,22,22,23,23,24,24,26,26,27,27,28,28,29,29,33,33,35,35,36,36,39,39,40,40,42,42],"right_children":[2,4,6,8,10,12,14,16,-1,18,20,22,24,26,-1,-1,28,-1,30,32,-1,34,36,38,40,-1,42,44,46,48,-1,-1,-1,50,-1,52,54,-1,-1,56,58,-1,60,-1,-1,-1,-1,-1,-1,-1,-1,-1,-1,-1,-1,-1,-1,-1,-1,-1,-1],"split_conditions":[7E0,5E0,1.3979883E0,1.6544938E0,4E0,1E1,1.2E1,2E0,-6.8406396E-2,-5.680499E-1,4.7132096E-1,-2.6227525E-1,-5.499437E-1,1.4824842E0,-8.09943E-2,-6.4282626E-2,-4.4496068E-1,-7.849002E-2,1.3979883E0,-1.5666024E-1,8.310475E-2,-3.793081E-1,-2.7382317E-1,-4.8492312E-1,1.6E1,7.894161E-2,2.8890486E0,-5.5447024E-1,-3.9928934E-1,1.2169257E0,-8.326475E-2,6.739027E-2,-6.982172E-2,-3.9604044E-1,-9.003877E-2,-2.9192942E-1,-2.5942078E-1,-6.927674E-2,7.469783E-2,-5.3738593E-3,-3.8501704E-1,-7.8569196E-2,3.8424382E0,3.800651E-2,5.9454866E-2,-6.8738693E-3,4.5748353E-2,-3.2207652E-5,6.747639E-2,-5.311938E-2,3.416093E-2,-6.652271E-2,7.2776444E-2,6.628185E-2,-4.2261336E-2,-7.621049E-2,-8.976279E-2,4.079599E-2,-7.114863E-2,7.8106545E-2,-6.1581153E-2],"split_indices":[2,2,3,3,0,2,2,2,0,3,1,1,3,3,0,0,1,0,3,1,0,1,3,1,2,0,1,3,1,3,0,0,0,3,0,3,1,0,0,1,1,0,1,0,0,0,0,0,0,0,0,0,0,0,0,0,0,0,0,0,0],"split_type":[0,0,0,0,0,0,0,0,0,0,0,0,0,0,0,0,0,0,0,0,0,0,0,0,0,0,0,0,0,0,0,0,0,0,0,0,0,0,0,0,0,0,0,0,0,0,0,0,0,0,0,0,0,0,0,0,0,0,0,0,0],"sum_hessian":[1.7255623E3,1.1321E3,5.934623E2,6.3010406E2,5.019959E2,5.554742E2,3.798812E1,6.271331E2,2.970941E0,4.823564E2,1.9639482E1,3.094039E2,2.4607025E2,3.0551702E1,7.4364176E0,2.471127E0,6.24662E2,7.626266E0,4.7473016E2,8.469442E0,1.1170041E1,1.1655193E2,1.9285197E2,8.452597E0,2.3761766E2,1.1700172E1,1.885153E1,1.8475966E2,4.3990234E2,4.6898322E2,5.746961E0,5.9713626E0,2.4980793E0,6.919139E1,4.7360546E1,1.4696259E1,1.7815572E2,2.728399E0,5.7241974E0,1.6927722E2,6.834044E1,5.9496727E0,1.2901857E1,6.75263E1,1.1723337E2,4.5489468E1,3.9441287E2,4.562735E2,1.2709708E1,5.2988888E1,1.6202501E1,2.4863448E0,1.2209913E1,6.2338977E0,1.7192181E2,8.270425E1,8.657297E1,7.1541896E0,6.1186253E1,1.1407765E1,1.4940912E0],"tree_param":{"num_deleted":"0","num_feature":"5","num_nodes":"61","size_leaf_vector":"1"}},{"base_weights":[-2.7390145E-2,4.196002E-1,-8.468543E-1,7.6465166E-1,-2.6014294E-2,-9.212707E-1,2.2759695E-1,7.7866757E-1,-6.853761E-2,-7.8743756E-2,1.1853625E0,-3.8669696E-1,-1.0373291E0,6.75305E-1,-7.735982E-2,-6.40152E-2,7.8970814E-1,-6.1105394E-1,1.1341518E-2,5.1662934E-1,7.9753965E-2,-9.62246E-1,1.1380249E0,-1.1781282E0,-5.377106E-1,7.203763E-2,1.6515268E-1,6.6456395E-1,8.54744E-1,-1.6889209E-1,-9.097801E-2,8.9332926E-1,-1.6784385E-1,6.4674444E-2,-6.5350965E-2,-3.8574946E-1,-1.320156E0,-6.608148E-2,1.3730419E0,-9.5970595E-1,-8.576377E-2,-1.0460287E0,1.280164E-1,-7.715126E-2,1.1264969E0,3.7209816E-2,-9.147892E-2,5.6317627E-2,3.603541E-2,1.3185804E-2,-8.56615E-2,3.2492783E-2,7.366209E-2,-5.8465045E-2,1.6694771E-3,-8.44472E-2,1.0075371E-2,-8.671116E-2,4.125637E-3,4.836031E-2,8.972003E-2,-3.875864E-2,-8.860519E-2,-2.9818201E-3,-8.5867785E-2,9.405583E-2,-2.512764E-2,7.5268775E-2,-5.9857376E-2],"categories":[],"categories_nodes":[],"categories_segments":[],"categories_sizes":[],"default_left":[0,0,0,0,0,0,0,0,0,0,0,0,0,0,0,0,0,0,0,0,0,0,0,0,0,0,0,0,0,0,0,0,0,0,0,0,0,0,0,0,0,0,0,0,0,0,0,0,0,0,0,0,0,0,0,0,0,0,0,0,0,0,0,0,0,0,0,0,0],"id":4,"left_children":[1,3,5,7,9,11,13,15,-1,17,19,21,23,25,-1,-1,27,29,31,33,-1,35,37,39,41,-1,43,45,47,49,-1,51,53,-1,-1,55,57,-1,59,61,-1,63,65,-1,67,-1,-1,-1,-1,-1,-1,-1,-1,-1,-1,-1,-1,-1,-1,-1,-1,-1,-1,-1,-1,-1,-1,-1,-1],"loss_changes":[6.276805E2,1.705143E2,4.8567505E1,1.9772308E1,3.1064499E1,3.470337E1,3.2810078E1,1.513974E1,0E0,2.2333126E1,4.7345524E0,9.106559E1,3.2027954E1,1.2500002E1,0E0,0E0,4.468567E0,3.5711647E1,6.3235367E1,1.47053795E1,0E0,1.4959793E1,1.8320293E1,4.0752686E1,3.529983E1,0E0,3.5736755E1,4.4285378E1,1.3885559E1,3.4158875E1,0E0,8.581818E0,6.706966E1,0E0,0E0,2.3398575E1,2.6767883E1,0E0,2.8051796E0,3.7481277E1,0E0,3.898963E1,5.1667393E1,0E0,1.3974226E1,0E0,0E0,0E0,0E0,0E0,0E0,0E0,0E0,0E0,0E0,0E0,0E0,0E0,0E0,0E0,0E0,0E0,0E0,0E0,0E0,0E0,0E0,0E0,0E0],"parents":[2147483647,0,0,1,1,2,2,3,3,4,4,5,5,6,6,7,7,9,9,10,10,11,11,12,12,13,13,16,16,17,17,18,18,19,19,21,21,22,22,23,23,24,24,26,26,27,27,28,28,29,29,31,31,32,32,35,35,36,36,38,38,39,39,41,41,42,42,44,44],"right_children":[2,4,6,8,10,12,14,16,-1,18,20,22,24,26,-1,-1,28,30,32,34,-1,36,38,40,42,-1,44,46,48,50,-1,52,54,-1,-1,56,58,-1,60,62,-1,64,66,-1,68,-1,-1,-1,-1,-1,-1,-1,-1,-1,-1,-1,-1,-1,-1,-1,-1,-1,-1,-1,-1,-1,-1,-1,-1],"split_conditions":[7E0,5E0,1.3979883E0,1.6544938E0,4E0,-3.793081E-1,1.2E1,2E0,-6.853761E-2,-4.2783394E-1,4.7132096E-1,-3.9151385E-1,4E0,1.4824842E0,-7.735982E-2,-6.40152E-2,-4.021438E-1,-4.5637852E-1,-3.935804E-1,-1.5666024E-1,7.9753965E-2,8E0,8E0,1.1E1,6.111895E-1,7.203763E-2,2.8890486E0,-4.1356164E-1,-3.2512423E-1,6E0,-9.097801E-2,-3.9928934E-1,-3.1003568E-1,6.4674444E-2,-6.5350965E-2,-4.8883504E-1,4E0,-6.608148E-2,1.3E1,3.0255952E-1,-8.576377E-2,-1.2240671E-1,6.397341E-1,-7.715126E-2,3.8424382E0,3.7209816E-2,-9.147892E-2,5.6317627E-2,3.603541E-2,1.3185804E-2,-8.56615E-2,3.2492783E-2,7.366209E-2,-5.8465045E-2,1.6694771E-3,-8.44472E-2,1.0075371E-2,-8.671116E-2,4.125637E-3,4.836031E-2,8.972003E-2,-3.875864E-2,-8.860519E-2,-2.9818201E-3,-8.5867785E-2,9.405583E-2,-2.512764E-2,7.5268775E-2,-5.9857376E-2],"split_indices":[2,2,3,3,0,1,2,2,0,1,1,3,0,3,0,0,1,1,1,1,0,2,2,2,1,0,1,1,3,2,0,1,3,0,0,3,0,0,2,3,0,1,1,0,1,0,0,0,0,0,0,0,0,0,0,0,0,0,0,0,0,0,0,0,0,0,0,0,0],"split_type":[0,0,0,0,0,0,0,0,0,0,0,0,0,0,0,0,0,0,0,0,0,0,0,0,0,0,0,0,0,0,0,0,0,0,0,0,0,0,0,0,0,0,0,0,0,0,0,0,0,0,0,0,0,0,0,0,0,0,0,0,0,0,0,0,0,0,0,0,0],"sum_hessian":[1.7116339E3,1.107835E3,6.03799E2,6.2396545E2,4.8386948E2,5.64822E2,3.897694E1,6.2052795E2,3.4375324E0,4.645819E2,1.9287577E1,1.0152442E2,4.6329764E2,3.1620005E1,7.3569374E0,2.696457E0,6.178315E2,6.6406364E1,3.9817554E2,8.186556E0,1.1101021E1,7.3970924E1,2.7553495E1,3.6037973E2,1.029179E2,1.191629E1,1.9703714E1,2.1511629E2,4.0271518E2,4.9452644E1,1.695372E1,6.6561325E1,3.3161423E2,5.9448233E0,2.2417328E0,2.9129286E1,4.484164E1,1.9998441E0,2.555365E1,2.5818118E2,1.02198555E2,5.8034332E1,4.4883564E1,6.8777742E0,1.282594E1,2.0914053E2,5.975762E0,1.3062169E2,2.720935E2,3.9278873E1,1.0173771E1,4.8372818E1,1.8188505E1,5.468056E1,2.7693365E2,8.466066E0,2.0663221E1,3.443891E1,1.0402727E1,1.4695241E1,1.085841E1,2.1198398E2,4.6197205E1,2.3943123E1,3.409121E1,1.1348741E1,3.3534824E1,1.1330595E1,1.4953455E0],"tree_param":{"num_deleted":"0","num_feature":"5","num_nodes":"69","size_leaf_vector":"1"}},{"base_weights":[1.1247934E-2,7.1113396E-1,-5.638663E-1,7.8554916E-1,3.2954237E-1,-2.160003E-1,-9.729545E-1,-6.7950524E-2,7.9966843E-1,-8.1035167E-1,5.406095E-1,5.2368935E-2,-3.4992316E-1,-2.3889975E-1,-1.1050298E0,8.1378555E-1,-6.7120574E-2,3.5878035E-1,-8.888224E-2,7.390357E-2,3.4294418E-1,-6.8146753E-1,3.9224607E-1,-1.329101E0,-2.0624867E-1,-5.5836815E-1,8.2418334E-1,-1.145502E0,6.55639E-2,7.919076E-1,7.611468E-2,-7.376325E-2,8.166608E-2,-2.3285766E-1,1.0183201E0,-8.093637E-2,-8.6431794E-2,-1.4312296E-2,6.285135E-1,-8.365509E-1,-8.7942265E-2,9.841586E-1,-3.3823365E-1,-3.9523415E-2,-8.1980176E-2,8.373526E-2,1.7188172E-1,-1.1891022E0,1.0274894E0,4.0242884E-2,-7.999952E-2,5.396055E-3,-8.398854E-2,7.405775E-2,1.7875941E-2,-7.22442E-2,9.577472E-3,1.3103089E-2,-8.3779976E-2,-8.168328E-3,5.1451888E-2,-8.7540984E-2,2.1251699E-2,6.940094E-2,8.406087E-3,-9.07171E-2,-1.2437818E-2,-2.1539731E-2,9.007512E-2,-6.855755E-2,5.3073622E-2,-4.2952616E-2,-7.061879E-2,8.026617E-2,-5.4576762E-2],"categories":[],"categories_nodes":[],"categories_segments":[],"categories_sizes":[],"default_left":[0,0,0,0,0,0,0,0,0,0,0,0,0,0,0,0,0,0,0,0,0,0,0,0,0,0,0,0,0,0,0,0,0,0,0,0,0,0,0,0,0,0,0,0,0,0,0,0,0,0,0,0,0,0,0,0,0,0,0,0,0,0,0,0,0,0,0,0,0,0,0,0,0,0,0],"id":5,"left_children":[1,3,5,7,9,11,13,-1,15,17,19,21,23,25,27,29,-1,31,-1,-1,33,35,37,39,41,43,45,47,-1,49,-1,-1,-1,51,53,55,-1,57,59,61,-1,63,65,67,-1,-1,69,71,73,-1,-1,-1,-1,-1,-1,-1,-1,-1,-1,-1,-1,-1,-1,-1,-1,-1,-1,-1,-1,-1,-1,-1,-1,-1,-1],"loss_changes":[6.9900256E2,2.1984344E1,1.354487E2,2.091278E1,3.160734E1,1.8580809E1,4.2181213E1,0E0,2.0782043E1,2.3980066E1,1.9859947E1,4.3367058E1,4.8215103E1,2.3566658E1,3.776065E1,8.83078E0,0E0,2.619979E1,0E0,0E0,3.60429E1,3.448829E1,1.141461E1,7.824913E0,4.7742886E1,2.9617851E1,8.65827E0,3.5821228E1,0E0,2.0807129E1,0E0,0E0,0E0,2.5088795E1,1.24867935E1,1.3673105E1,0E0,2.0925571E1,2.399342E1,2.6547441E1,0E0,9.776493E0,3.5523983E1,2.72692E1,0E0,0E0,1.5512006E1,2.5203094E1,1.1204703E1,0E0,0E0,0E0,0E0,0E0,0E0,0E0,0E0,0E0,0E0,0E0,0E0,0E0,0E0,0E0,0E0,0E0,0E0,0E0,0E0,0E0,0E0,0E0,0E0,0E0,0E0],"parents":[2147483647,0,0,1,1,2,2,3,3,4,4,5,5,6,6,8,8,9,9,10,10,11,11,12,12,13,13,14,14,15,15,17,17,20,20,21,21,22,22,23,23,24,24,25,25,26,26,27,27,29,29,33,33,34,34,35,35,37,37,38,38,39,39,41,41,42,42,43,43,46,46,47,47,48,48],"right_children":[2,4,6,8,10,12,14,-1,16,18,20,22,24,26,28,30,-1,32,-1,-1,34,36,38,40,42,44,46,48,-1,50,-1,-1,-1,52,54,56,-1,58,60,62,-1,64,66,68,-1,-1,70,72,74,-1,-1,-1,-1,-1,-1,-1,-1,-1,-1,-1,-1,-1,-1,-1,-1,-1,-1,-1,-1,-1,-1,-1,-1,-1,-1],"split_conditions":[2.3333333E0,5E0,8E0,1E0,-1.9662267E-1,-3.793081E-1,2.8E0,-6.7950524E-2,1.6544938E0,-4.1356164E-1,-2.4364606E-1,-4.4781515E-1,-3.1456226E-1,1.3276589E0,1E1,9.6042037E-1,-6.7120574E-2,-4.1641608E-1,-8.888224E-2,7.390357E-2,7.596214E-1,6E0,6E0,-3.6218137E-1,-3.2792783E-1,1.0880454E-1,9.6042037E-1,3.5E1,6.55639E-2,6.737379E-1,7.611468E-2,-7.376325E-2,8.166608E-2,3.3430687E-1,1.8E0,-4.9919543E-1,-8.6431794E-2,-3.935804E-1,-4.078527E-1,-3.5530135E-1,-8.7942265E-2,6E0,-2.692966E-1,1.0024116E-1,-8.1980176E-2,8.373526E-2,2.3244255E0,-1.6971216E-1,6E0,4.0242884E-2,-7.999952E-2,5.396055E-3,-8.398854E-2,7.405775E-2,1.7875941E-2,-7.22442E-2,9.577472E-3,1.3103089E-2,-8.3779976E-2,-8.168328E-3,5.1451888E-2,-8.7540984E-2,2.1251699E-2,6.940094E-2,8.406087E-3,-9.07171E-2,-1.2437818E-2,-2.1539731E-2,9.007512E-2,-6.855755E-2,5.3073622E-2,-4.2952616E-2,-7.061879E-2,8.026617E-2,-5.4576762E-2],"split_indices":[4,2,2,4,1,1,4,0,3,1,3,1,3,1,4,3,0,1,0,0,1,2,2,1,1,1,3,2,0,3,0,0,0,1,4,1,0,1,1,3,0,2,3,1,0,0,3,3,4,0,0,0,0,0,0,0,0,0,0,0,0,0,0,0,0,0,0,0,0,0,0,0,0,0,0],"split_type":[0,0,0,0,0,0,0,0,0,0,0,0,0,0,0,0,0,0,0,0,0,0,0,0,0,0,0,0,0,0,0,0,0,0,0,0,0,0,0,0,0,0,0,0,0,0,0,0,0,0,0,0,0,0,0,0,0,0,0,0,0,0,0,0,0,0,0,0,0,0,0,0,0,0,0],"sum_hessian":[1.7345938E3,7.8231635E2,9.5227734E2,6.537652E2,1.2855118E2,5.1547437E2,4.3680298E2,3.653057E0,6.501121E2,1.9640568E1,1.08910614E2,1.7180391E2,3.4367047E2,6.7035934E1,3.6976706E2,6.4647174E2,3.6404042E0,9.177339E0,1.0463228E1,1.783716E1,9.1073456E1,5.4065285E1,1.17738625E2,4.2918602E1,3.0075186E2,5.1910892E1,1.5125039E1,3.6419287E2,5.5741615E0,6.291616E2,1.731012E1,3.6981993E0,5.4791393E0,4.9514416E1,4.1559036E1,3.504496E1,1.9020327E1,4.3619522E1,7.41191E1,2.1370962E1,2.154764E1,2.9372944E1,2.713789E2,3.5778614E1,1.6132277E1,5.8847127E0,9.240327E0,3.574731E2,6.719775E0,6.2643353E2,2.7280886E0,4.0824738E1,8.689679E0,2.3710442E1,1.7848597E1,5.1189713E0,2.9925987E1,3.8120068E1,5.499455E0,2.5095222E1,4.902388E1,1.2166281E1,9.20468E0,1.9179836E1,1.0193108E1,1.4408277E1,2.5697064E2,3.0139174E1,5.6394424E0,3.1811535E0,6.0591736E0,1.4620135E2,2.1127176E2,5.4704647E0,1.2493106E0],"tree_param":{"num_deleted":"0","num_feature":"5","num_nodes":"75","size_leaf_vector":"1"}},{"base_weights":[4.2854425E-2,4.7043598E-1,-8.091453E-1,7.6563686E-1,7.118317E-2,-5.6189185E-1,-1.1197945E0,7.77687E-1,-6.443502E-2,9.802919E-2,-8.376228E-2,-6.32627E-1,6.427449E-2,-1.3368438E0,-4.8712304E-1,-6.1948825E-2,7.8743345E-1,-8.419578E-1,1.4472139E-1,-5.5358595E-1,-8.2764216E-2,-1.4181293E0,5.7190664E-2,8.687494E-2,-9.470837E-1,7.68809E-1,1.412074E0,-1.3929486E-1,-8.493503E-2,1.0247485E-1,1.0731457E0,-6.8448436E-1,2.023571E-1,-1.1641742E0,-8.14145E-2,1.6808382E-1,-8.1974916E-2,3.9040342E-2,-7.72252E-2,8.05851E-2,4.6073873E-2,-7.2962426E-2,7.1442924E-2,8.479836E-3,-8.7164424E-2,8.170604E-2,1.5196504E-2,-1.2344307E-2,-4.2041328E-2,9.704908E-2,-2.1653049E-2,-8.2174726E-2,-4.4338144E-2,-7.340623E-2,5.0323483E-2],"categories":[],"categories_nodes":[],"categories_segments":[],"categories_sizes":[],"default_left":[0,0,0,0,0,0,0,0,0,0,0,0,0,0,0,0,0,0,0,0,0,0,0,0,0,0,0,0,0,0,0,0,0,0,0,0,0,0,0,0,0,0,0,0,0,0,0,0,0,0,0,0,0,0,0],"id":6,"left_children":[1,3,5,7,9,11,13,15,-1,17,-1,19,-1,21,23,-1,25,27,29,31,-1,33,-1,-1,35,37,39,41,-1,43,45,47,49,51,-1,53,-1,-1,-1,-1,-1,-1,-1,-1,-1,-1,-1,-1,-1,-1,-1,-1,-1,-1,-1],"loss_changes":[6.505498E2,1.4007718E2,4.5206024E1,1.7921234E1,2.391195E1,4.4495605E1,3.5527313E1,1.4343018E1,0E0,2.2057678E1,0E0,2.516211E1,0E0,4.1060913E1,7.211631E1,0E0,6.7953796E0,1.4089836E1,1.859896E1,2.9921127E1,0E0,8.23587E0,0E0,0E0,4.4842766E1,1.9524536E1,3.1871033E-1,3.1403084E1,0E0,5.6955715E1,8.416012E0,1.7360336E1,5.0771965E1,1.0438942E1,0E0,3.3050945E1,0E0,0E0,0E0,0E0,0E0,0E0,0E0,0E0,0E0,0E0,0E0,0E0,0E0,0E0,0E0,0E0,0E0,0E0,0E0],"parents":[2147483647,0,0,1,1,2,2,3,3,4,4,5,5,6,6,7,7,9,9,11,11,13,13,14,14,16,16,17,17,18,18,19,19,21,21,24,24,25,25,26,26,27,27,29,29,30,30,31,31,32,32,33,33,35,35],"right_children":[2,4,6,8,10,12,14,16,-1,18,-1,20,-1,22,24,-1,26,28,30,32,-1,34,-1,-1,36,38,40,42,-1,44,46,48,50,52,-1,54,-1,-1,-1,-1,-1,-1,-1,-1,-1,-1,-1,-1,-1,-1,-1,-1,-1,-1,-1],"split_conditions":[7E0,5E0,1E1,1.6544938E0,1.2712445E0,2.8890486E0,6.111895E-1,1E0,-6.443502E-2,-5.318374E-1,-8.376228E-2,6.0433054E-1,6.427449E-2,1E1,1.2904117E-1,-6.1948825E-2,9.6042037E-1,-4.9634096E-1,7.596214E-1,2.9048866E-1,-8.2764216E-2,1.2E1,5.7190664E-2,8.687494E-2,1.2E1,6.737379E-1,5.883538E-1,-5.680499E-1,-8.493503E-2,3.8252884E-1,7.853932E-1,-3.793081E-1,3.0255952E-1,3.4E0,-8.14145E-2,1.3276589E0,-8.1974916E-2,3.9040342E-2,-7.72252E-2,8.05851E-2,4.6073873E-2,-7.2962426E-2,7.1442924E-2,8.479836E-3,-8.7164424E-2,8.170604E-2,1.5196504E-2,-1.2344307E-2,-4.2041328E-2,9.704908E-2,-2.1653049E-2,-8.2174726E-2,-4.4338144E-2,-7.340623E-2,5.0323483E-2],"split_indices":[2,2,2,3,3,1,1,4,0,3,0,3,0,4,3,0,3,1,1,3,0,2,0,0,2,3,1,3,0,3,3,1,3,4,0,1,0,0,0,0,0,0,0,0,0,0,0,0,0,0,0,0,0,0,0],"split_type":[0,0,0,0,0,0,0,0,0,0,0,0,0,0,0,0,0,0,0,0,0,0,0,0,0,0,0,0,0,0,0,0,0,0,0,0,0,0,0,0,0,0,0,0,0,0,0,0,0,0,0,0,0,0,0],"sum_hessian":[1.7837114E3,1.1879692E3,5.957422E2,6.824554E2,5.0551382E2,3.332828E2,2.6245938E2,6.7909344E2,3.3619375E0,4.987903E2,6.723511E0,3.216255E2,1.1657303E1,1.9458907E2,6.787031E1,2.6596367E0,6.7643384E2,2.2798042E1,4.7599228E2,2.999813E2,2.164421E1,1.8882986E2,5.7592015E0,1.1152622E1,5.6717686E1,6.5901526E2,1.7418589E1,1.3164051E1,9.633991E0,4.563377E2,1.9654575E1,2.5578441E2,4.4196873E1,8.846699E1,1.0036288E2,2.2016418E1,3.4701267E1,6.56274E2,2.7412453E0,1.0756493E1,6.6620955E0,7.185383E0,5.978668E0,4.4120135E2,1.5136336E1,1.0715534E1,8.939041E0,6.8008736E1,1.8777568E2,1.1279464E1,3.2917408E1,3.0625994E1,5.7840992E1,7.2046213E0,1.4811797E1],"tree_param":{"num_deleted":"0","num_feature":"5","num_nodes":"55","size_leaf_vector":"1"}},{"base_weights":[1.5668781E-2,4.0542632E-1,-7.0982474E-1,6.615906E-1,1.0689128E-1,-4.349029E-1,-1.0281742E0,-6.452808E-2,6.754134E-1,-7.9718344E-2,1.6043034E-1,8.176766E-1,-5.0191814E-1,-1.0804935E0,5.1749762E-2,6.8645406E-1,-6.0448464E-2,4.7421277E-1,4.2741434E-3,-6.603747E-2,6.824298E-2,-5.9321594E-1,5.697387E-1,-8.1442636E-1,-1.4065843E0,6.714412E-1,6.6937946E-2,2.3059739E-1,1.0449178E0,-4.847618E-1,3.2098398E-1,-6.392068E-1,5.449903E-2,1.0968387E0,-7.133724E-2,-8.124953E-2,-6.287113E-1,-9.8955595E-1,-7.872149E-2,3.420975E-2,-7.426007E-2,1.7610027E-2,-1.233001E-2,-1.2388863E-2,7.4161746E-2,-9.309689E-3,-5.1532365E-2,6.770932E-2,8.354516E-3,3.1760056E-2,-3.4011748E-2,7.1167156E-2,4.346099E-2,6.358558E-2,-3.7145153E-2,-7.598342E-2,-9.656075E-3],"categories":[],"categories_nodes":[],"categories_segments":[],"categories_sizes":[],"default_left":[0,0,0,0,0,0,0,0,0,0,0,0,0,0,0,0,0,0,0,0,0,0,0,0,0,0,0,0,0,0,0,0,0,0,0,0,0,0,0,0,0,0,0,0,0,0,0,0,0,0,0,0,0,0,0,0,0],"id":7,"left_children":[1,3,5,7,9,11,13,-1,15,-1,17,19,21,23,-1,25,-1,27,29,-1,-1,31,33,35,37,39,-1,41,43,45,47,49,-1,51,-1,-1,53,55,-1,-1,-1,-1,-1,-1,-1,-1,-1,-1,-1,-1,-1,-1,-1,-1,-1,-1,-1],"loss_changes":[4.8611133E2,8.545024E1,5.21362E1,1.710727E1,4.740368E1,2.7618183E1,3.1092224E1,0E0,1.3273041E1,0E0,2.4632149E1,2.150849E1,3.0500587E1,2.2393188E1,0E0,4.930359E0,0E0,2.298433E1,5.2304314E1,0E0,0E0,2.2726036E1,2.7570541E1,2.182592E1,6.8784027E0,1.70755E1,0E0,6.9549775E0,2.8523487E1,2.1443003E1,3.236242E1,1.4948654E1,0E0,2.5778198E-1,0E0,0E0,2.8096386E1,1.5446178E1,0E0,0E0,0E0,0E0,0E0,0E0,0E0,0E0,0E0,0E0,0E0,0E0,0E0,0E0,0E0,0E0,0E0,0E0,0E0],"parents":[2147483647,0,0,1,1,2,2,3,3,4,4,5,5,6,6,8,8,10,10,11,11,12,12,13,13,15,15,17,17,18,18,21,21,22,22,23,23,24,24,25,25,27,27,28,28,29,29,30,30,31,31,33,33,36,36,37,37],"right_children":[2,4,6,8,10,12,14,-1,16,-1,18,20,22,24,-1,26,-1,28,30,-1,-1,32,34,36,38,40,-1,42,44,46,48,50,-1,52,-1,-1,54,56,-1,-1,-1,-1,-1,-1,-1,-1,-1,-1,-1,-1,-1,-1,-1,-1,-1,-1,-1],"split_conditions":[7E0,5E0,3.6E0,1E0,-5.408905E-1,-5.499437E-1,3.5E1,-6.452808E-2,1.6544938E0,-7.9718344E-2,-3.7642533E-1,-5.5447024E-1,1.3979883E0,1.2E1,5.1749762E-2,9.6042037E-1,-6.0448464E-2,-4.0962014E-1,-1.5613246E-1,-6.603747E-2,6.824298E-2,1.7E1,9E0,-3.8246074E-1,4.1666665E0,6.737379E-1,6.6937946E-2,-4.4130608E-1,2.6E0,-2.6024348E-1,-1.380262E-1,1.8E0,5.449903E-2,1.4824842E0,-7.133724E-2,-8.124953E-2,-3.7793416E-1,1.6E1,-7.872149E-2,3.420975E-2,-7.426007E-2,1.7610027E-2,-1.233001E-2,-1.2388863E-2,7.4161746E-2,-9.309689E-3,-5.1532365E-2,6.770932E-2,8.354516E-3,3.1760056E-2,-3.4011748E-2,7.1167156E-2,4.346099E-2,6.358558E-2,-3.7145153E-2,-7.598342E-2,-9.656075E-3],"split_indices":[2,2,4,4,3,3,2,0,3,0,3,3,3,2,0,3,0,3,3,0,0,2,2,3,4,3,0,3,4,3,3,4,0,3,0,0,3,2,0,0,0,0,0,0,0,0,0,0,0,0,0,0,0,0,0,0,0],"split_type":[0,0,0,0,0,0,0,0,0,0,0,0,0,0,0,0,0,0,0,0,0,0,0,0,0,0,0,0,0,0,0,0,0,0,0,0,0,0,0,0,0,0,0,0,0,0,0,0,0,0,0,0,0,0,0,0,0],"sum_hessian":[1.717108E3,1.1173007E3,5.998073E2,6.006684E2,5.166323E2,3.2312634E2,2.7668097E2,3.573908E0,5.970945E2,1.4884444E1,5.0174786E2,1.5841019E1,3.0728534E2,2.7030273E2,6.378236E0,5.9424854E2,2.8459806E0,1.660493E2,3.3569855E2,2.9395082E0,1.290151E1,2.8357327E2,2.3712044E1,1.507769E2,1.19525826E2,5.828632E2,1.1385282E1,1.1735734E2,4.8691963E1,1.3174252E2,2.0395602E2,2.766349E2,6.9384074E0,1.9115812E1,4.596232E0,2.666147E1,1.2411544E2,3.628012E1,8.3245705E1,5.8011536E2,2.7478864E0,9.373341E1,2.3623926E1,1.2439577E1,3.6252388E1,8.603009E1,4.5712437E1,2.5429493E1,1.7852654E2,8.176473E0,2.684584E2,5.6943936E0,1.3421418E1,6.4605103E0,1.1765493E2,2.1236721E1,1.5043399E1],"tree_param":{"num_deleted":"0","num_feature":"5","num_nodes":"57","size_leaf_vector":"1"}},{"base_weights":[5.582006E-2,4.3412519E-1,-6.675456E-1,6.872214E-1,1.255894E-1,-1.8184561E-2,-8.082477E-1,7.081507E-1,-7.6788634E-2,-4.1787466E-1,1.9702142E-1,-5.6670034E-1,1.1341985E0,-6.431938E-1,-1.2629582E0,-6.0434815E-2,7.193673E-1,7.762297E-2,-8.198205E-2,6.665825E-1,4.77394E-2,7.693043E-2,-7.783264E-2,7.689327E-1,9.062596E-2,-7.983583E-2,-5.465212E-1,-1.3851702E0,4.9815632E-2,6.9895643E-1,6.8949096E-2,4.2394355E-1,-8.1351325E-2,-9.1221854E-2,1.1807618E0,-1.2376037E0,2.0543145E-1,-7.591579E-2,3.592954E-1,9.6839315E-1,-5.365857E-2,8.786532E-2,-5.9250426E-1,-8.151776E-1,-7.681153E-2,3.5461184E-2,-7.268427E-2,-6.610133E-2,3.6897164E-2,1.3661056E-2,-8.414208E-2,2.4773605E-2,7.042701E-2,-8.749037E-2,-3.177767E-2,5.3269457E-2,4.7915815E-3,5.843041E-2,-5.1378594E-3,6.19467E-2,2.373456E-2,1.8495973E-3,-3.6883898E-2,-7.8386724E-2,5.481821E-2],"categories":[],"categories_nodes":[],"categories_segments":[],"categories_sizes":[],"default_left":[0,0,0,0,0,0,0,0,0,0,0,0,0,0,0,0,0,0,0,0,0,0,0,0,0,0,0,0,0,0,0,0,0,0,0,0,0,0,0,0,0,0,0,0,0,0,0,0,0,0,0,0,0,0,0,0,0,0,0,0,0,0,0,0,0],"id":8,"left_children":[1,3,5,7,9,11,13,15,-1,17,19,21,23,25,27,-1,29,31,-1,33,35,37,-1,39,-1,-1,41,43,-1,45,-1,47,-1,49,51,53,55,-1,57,59,-1,-1,61,63,-1,-1,-1,-1,-1,-1,-1,-1,-1,-1,-1,-1,-1,-1,-1,-1,-1,-1,-1,-1,-1],"loss_changes":[4.832486E2,9.045236E1,5.5392883E1,3.071106E1,2.0413221E1,6.955584E1,3.659427E1,1.4446259E1,0E0,3.7152256E1,3.246183E1,4.7608234E1,7.3998985E0,3.3022964E1,3.7743042E1,0E0,7.496643E0,2.6941397E1,0E0,4.364866E1,7.176433E1,2.1319336E1,0E0,1.0153581E1,0E0,0E0,3.657084E1,9.541382E0,0E0,1.4547943E1,0E0,2.16726E1,0E0,2.7199865E1,9.705048E0,1.0820847E1,2.9597542E1,0E0,1.5074827E1,2.4716263E0,0E0,0E0,3.0145416E1,4.256317E1,0E0,0E0,0E0,0E0,0E0,0E0,0E0,0E0,0E0,0E0,0E0,0E0,0E0,0E0,0E0,0E0,0E0,0E0,0E0,0E0,0E0],"parents":[2147483647,0,0,1,1,2,2,3,3,4,4,5,5,6,6,7,7,9,9,10,10,11,11,12,12,13,13,14,14,16,16,17,17,19,19,20,20,21,21,23,23,26,26,27,27,29,29,31,31,33,33,34,34,35,35,36,36,38,38,39,39,42,42,43,43],"right_children":[2,4,6,8,10,12,14,16,-1,18,20,22,24,26,28,-1,30,32,-1,34,36,38,-1,40,-1,-1,42,44,-1,46,-1,48,-1,50,52,54,56,-1,58,60,-1,-1,62,64,-1,-1,-1,-1,-1,-1,-1,-1,-1,-1,-1,-1,-1,-1,-1,-1,-1,-1,-1,-1,-1],"split_conditions":[7E0,5E0,-3.793081E-1,5.883538E-1,-4.7299203E-1,-3.9604044E-1,4.1666665E0,1E0,-7.6788634E-2,6E0,-3.7645367E-1,3.6E0,1.3E1,-3.1908882E-1,3.1E1,-6.0434815E-2,4.1423175E-1,-4.5637852E-1,-8.198205E-2,2.6E0,-3.1456226E-1,2.75E0,-7.783264E-2,1E1,9.062596E-2,-7.983583E-2,-3.1456226E-1,1E1,4.9815632E-2,2.7150875E-1,6.8949096E-2,-4.9919543E-1,-8.1351325E-2,-3.935804E-1,-4.078527E-1,2.6E0,-2.9645598E-1,-7.591579E-2,-5.499437E-1,-3.8501704E-1,-5.365857E-2,8.786532E-2,-2.1945836E-1,6.88421E-2,-7.681153E-2,3.5461184E-2,-7.268427E-2,-6.610133E-2,3.6897164E-2,1.3661056E-2,-8.414208E-2,2.4773605E-2,7.042701E-2,-8.749037E-2,-3.177767E-2,5.3269457E-2,4.7915815E-3,5.843041E-2,-5.1378594E-3,6.19467E-2,2.373456E-2,1.8495973E-3,-3.6883898E-2,-7.8386724E-2,5.481821E-2],"split_indices":[2,2,1,1,3,3,4,4,0,2,1,4,2,3,2,0,1,1,0,4,3,4,0,2,0,0,3,2,0,1,0,1,0,1,1,4,3,0,3,1,0,0,1,1,0,0,0,0,0,0,0,0,0,0,0,0,0,0,0,0,0,0,0,0,0],"split_type":[0,0,0,0,0,0,0,0,0,0,0,0,0,0,0,0,0,0,0,0,0,0,0,0,0,0,0,0,0,0,0,0,0,0,0,0,0,0,0,0,0,0,0,0,0,0,0,0,0,0,0,0,0,0,0,0,0,0,0,0,0,0,0,0,0],"sum_hessian":[1.7638586E3,1.1584259E3,6.0543274E2,6.3571375E2,5.227122E2,1.0802239E2,4.9741034E2,6.304595E2,5.254271E0,6.0159664E1,4.6255255E2,7.353104E1,3.4491352E1,3.6671292E2,1.3069739E2,3.0466526E0,6.274128E2,4.3467514E1,1.669215E1,1.10744514E2,3.5180804E2,4.5118763E1,2.8412275E1,2.3805834E1,1.0685516E1,3.232831E1,3.343846E2,1.2435735E2,6.340039E0,6.105789E2,1.6833864E1,3.675216E1,6.715354E0,4.5099236E1,6.564528E1,3.7696533E1,3.141115E2,6.1269383E0,3.8991825E1,2.190797E1,1.8978635E0,5.815233E0,3.285694E2,2.7392853E1,9.69645E1,6.083479E2,2.231044E0,5.1127644E0,3.1639397E1,3.7370598E1,7.7286377E0,1.7168299E1,4.847698E1,1.9338005E1,1.8358528E1,3.45217E1,2.795898E2,1.3615063E1,2.5376764E1,1.3177456E1,8.730515E0,6.1713787E1,2.668556E2,1.9783949E1,7.6089053E0],"tree_param":{"num_deleted":"0","num_feature":"5","num_nodes":"65","size_leaf_vector":"1"}},{"base_weights":[2.8297221E-2,5.81768E-1,-3.9495093E-1,8.0129784E-1,4.9930194E-1,-1.107583E-1,-7.9748553E-1,-5.04675E-1,8.8684994E-1,-9.302308E-2,5.5323344E-1,-1.4351181E-2,-9.867889E-1,-5.112669E-1,-1.184304E0,-9.895237E-2,5.219006E-2,9.1065407E-1,-5.5299845E-2,5.6141627E-1,-5.6299157E-2,-7.6131724E-2,2.695198E-2,-8.130459E-2,2.101312E-1,-7.7510156E-2,-4.269177E-1,-1.2731707E0,9.3845195E-1,8.007237E-1,1.1620442E0,-5.134454E-2,5.688709E-1,-1.2344532E-2,1.3638598E0,7.503242E-2,-4.381304E-1,2.451817E-1,-6.8637407E-1,-1.1008788E0,-7.450682E-2,-4.3997757E-2,7.095497E-2,4.3605182E-2,-9.164564E-2,5.4016437E-2,8.062596E-2,2.6690433E-2,4.8392795E-2,1.7728653E-2,-9.643906E-3,4.4218954E-2,9.1163665E-2,-7.228057E-2,2.3787577E-2,-1.950496E-2,4.869058E-2,-4.6110008E-2,8.768517E-3,-7.684611E-2,-4.1103266E-2],"categories":[],"categories_nodes":[],"categories_segments":[],"categories_sizes":[],"default_left":[0,0,0,0,0,0,0,0,0,0,0,0,0,0,0,0,0,0,0,0,0,0,0,0,0,0,0,0,0,0,0,0,0,0,0,0,0,0,0,0,0,0,0,0,0,0,0,0,0,0,0,0,0,0,0,0,0,0,0,0,0],"id":9,"left_children":[1,3,5,7,9,11,13,15,17,-1,19,21,23,25,27,-1,-1,29,-1,31,-1,-1,33,-1,35,-1,37,39,41,43,45,-1,47,49,51,-1,53,55,57,59,-1,-1,-1,-1,-1,-1,-1,-1,-1,-1,-1,-1,-1,-1,-1,-1,-1,-1,-1,-1,-1],"loss_changes":[4.0541748E2,1.3176651E1,1.1210614E2,2.314331E1,7.0746185E1,4.863543E1,4.4312103E1,3.2032986E1,1.0068161E1,0E0,8.001846E0,3.243193E1,4.402923E1,1.9926197E1,3.359839E1,0E0,0E0,4.300934E0,0E0,6.9116364E0,0E0,0E0,2.6656065E1,0E0,1.8027908E1,0E0,3.8300404E1,4.5384827E0,7.784418E0,2.6962418E1,2.9644775E-1,0E0,6.933365E0,3.27636E1,1.5789356E0,0E0,1.4125439E1,2.891264E1,3.2277023E1,1.0402946E1,0E0,0E0,0E0,0E0,0E0,0E0,0E0,0E0,0E0,0E0,0E0,0E0,0E0,0E0,0E0,0E0,0E0,0E0,0E0,0E0,0E0],"parents":[2147483647,0,0,1,1,2,2,3,3,4,4,5,5,6,6,7,7,8,8,10,10,11,11,12,12,13,13,14,14,17,17,19,19,22,22,24,24,26,26,27,27,28,28,29,29,30,30,32,32,33,33,34,34,36,36,37,37,38,38,39,39],"right_children":[2,4,6,8,10,12,14,16,18,-1,20,22,24,26,28,-1,-1,30,-1,32,-1,-1,34,-1,36,-1,38,40,42,44,46,-1,48,50,52,-1,54,56,58,60,-1,-1,-1,-1,-1,-1,-1,-1,-1,-1,-1,-1,-1,-1,-1,-1,-1,-1,-1,-1,-1],"split_conditions":[2.2E0,-4.8204517E-1,3.2E0,1.4E0,-4.5941234E-1,3.5143363E-1,3E0,-4.7065082E-1,4E0,-9.302308E-2,5E0,-4.8206866E-1,1.3276589E0,-4.4781515E-1,6E0,-9.895237E-2,5.219006E-2,-4.6208745E-1,-5.5299845E-2,1E0,-5.6299157E-2,-7.6131724E-2,3.1718013E-1,-8.130459E-2,9.6042037E-1,-7.7510156E-2,-3.793081E-1,4.1666665E0,4.2E0,-4.677964E-1,-4.1927055E-1,-5.134454E-2,4E0,-3.7645367E-1,7.582338E-1,7.503242E-2,2.8890486E0,-3.9072594E-1,4.600642E-2,3.625E0,-7.450682E-2,-4.3997757E-2,7.095497E-2,4.3605182E-2,-9.164564E-2,5.4016437E-2,8.062596E-2,2.6690433E-2,4.8392795E-2,1.7728653E-2,-9.643906E-3,4.4218954E-2,9.1163665E-2,-7.228057E-2,2.3787577E-2,-1.950496E-2,4.869058E-2,-4.6110008E-2,8.768517E-3,-7.684611E-2,-4.1103266E-2],"split_indices":[4,3,4,4,3,1,0,1,0,0,0,1,1,1,0,0,0,1,0,4,0,0,1,0,3,0,1,4,4,1,1,0,0,1,3,0,1,1,1,4,0,0,0,0,0,0,0,0,0,0,0,0,0,0,0,0,0,0,0,0,0],"split_type":[0,0,0,0,0,0,0,0,0,0,0,0,0,0,0,0,0,0,0,0,0,0,0,0,0,0,0,0,0,0,0,0,0,0,0,0,0,0,0,0,0,0,0,0,0,0,0,0,0,0,0,0,0,0,0,0,0,0,0,0,0],"sum_hessian":[1.728683E3,7.489395E2,9.7974347E2,2.0213263E2,5.468069E2,5.7503754E2,4.0470596E2,1.2126087E1,1.9000655E2,1.1469373E1,5.353375E2,5.1894415E2,5.6093388E1,2.3393336E2,1.707726E2,6.0692377E0,6.0568495E0,1.8830038E2,1.7061713E0,5.334039E2,1.9336146E0,1.2876146E1,5.06068E2,3.6330086E1,1.9763304E1,1.6261436E1,2.1767192E2,1.6429482E2,6.47778E0,1.3392255E2,5.4377827E1,1.8529682E0,5.315509E2,4.9258008E2,1.3487927E1,6.1685247E0,1.359478E1,6.0641182E1,1.5703075E2,9.496073E1,6.933409E1,1.1805812E0,5.297199E0,1.3103981E2,2.882737E0,4.8904778E1,5.473052E0,4.9076138E2,4.0789543E1,1.6212077E2,3.304593E2,8.031073E0,5.456855E0,6.18951E0,7.40527E0,3.2644005E1,2.7997179E1,1.2323573E2,3.3795006E1,3.527731E1,5.968342E1],"tree_param":{"num_deleted":"0","num_feature":"5","num_nodes":"61","size_leaf_vector":"1"}},{"base_weights":[1.229867E-2,5.4354334E-1,-4.0186447E-1,6.3278514E-1,2.0754509E-1,-1.2260411E-1,-7.85717E-1,6.447135E-1,-6.364922E-2,-7.815839E-1,3.514677E-1,3.5120328E-3,-8.004562E-2,-2.4370132E-1,-9.2444164E-1,-5.373412E-2,6.537265E-1,1.0362811E-1,-8.385279E-2,1.8964022E-1,9.942029E-1,-1.84836E-2,8.696384E-2,-1.1286932E0,8.0628836E-1,-1.0075161E0,3.3248127E-1,8.206676E-1,5.7225204E-1,-7.555679E-2,7.758866E-2,3.3057082E-1,-8.599988E-2,7.1468614E-2,6.022685E-1,1.592113E-2,-7.702541E-2,3.1441087E-1,-7.781133E-2,4.1477302E-1,8.4982626E-2,-1.0514972E0,8.924643E-1,7.509626E-2,-6.9256775E-2,1.2637024E-2,4.370924E-2,-6.761005E-2,2.9328322E-2,4.5103602E-2,5.8951788E-3,-6.857454E-2,5.2208614E-2,-4.888476E-4,1.01380765E-1,-5.911048E-2,5.209602E-2,3.486864E-2,-6.252822E-2,-4.7006752E-2,-7.5515024E-2,-4.4646885E-2,6.881754E-2],"categories":[],"categories_nodes":[],"categories_segments":[],"categories_sizes":[],"default_left":[0,0,0,0,0,0,0,0,0,0,0,0,0,0,0,0,0,0,0,0,0,0,0,0,0,0,0,0,0,0,0,0,0,0,0,0,0,0,0,0,0,0,0,0,0,0,0,0,0,0,0,0,0,0,0,0,0,0,0,0,0,0,0],"id":10,"left_children":[1,3,5,7,9,11,13,15,-1,17,19,21,-1,23,25,-1,27,29,-1,31,33,35,-1,37,39,41,43,45,47,-1,-1,49,-1,-1,51,53,-1,55,-1,57,-1,59,61,-1,-1,-1,-1,-1,-1,-1,-1,-1,-1,-1,-1,-1,-1,-1,-1,-1,-1,-1,-1],"loss_changes":[3.78114E2,2.2442703E1,1.034211E2,1.4332138E1,2.2978102E1,1.0444687E2,3.0340088E1,9.866257E0,0E0,1.6477535E1,1.4364141E1,1.9776745E1,0E0,7.914887E1,3.4094055E1,0E0,7.53981E0,2.8733839E1,0E0,3.098179E1,3.8987274E0,2.681822E1,0E0,2.8935013E1,1.29681225E1,2.630069E1,4.38515E1,5.579132E0,1.1785553E1,0E0,0E0,1.278647E1,0E0,0E0,1.5745543E1,2.5938087E1,0E0,1.361065E1,0E0,1.4286396E1,0E0,1.3760132E1,7.628715E0,0E0,0E0,0E0,0E0,0E0,0E0,0E0,0E0,0E0,0E0,0E0,0E0,0E0,0E0,0E0,0E0,0E0,0E0,0E0,0E0],"parents":[2147483647,0,0,1,1,2,2,3,3,4,4,5,5,6,6,7,7,9,9,10,10,11,11,13,13,14,14,16,16,17,17,19,19,20,20,21,21,23,23,24,24,25,25,26,26,27,27,28,28,31,31,34,34,35,35,37,37,39,39,41,41,42,42],"right_children":[2,4,6,8,10,12,14,16,-1,18,20,22,-1,24,26,-1,28,30,-1,32,34,36,-1,38,40,42,44,46,48,-1,-1,50,-1,-1,52,54,-1,56,-1,58,-1,60,62,-1,-1,-1,-1,-1,-1,-1,-1,-1,-1,-1,-1,-1,-1,-1,-1,-1,-1,-1,-1],"split_conditions":[2.3333333E0,3E0,3.2E0,5.883538E-1,-3.462482E-1,3.5143363E-1,-3.8216257E-1,7.5E-1,-6.364922E-2,-4.1356164E-1,1.2169257E0,7.582338E-1,-8.004562E-2,-4.1867325E-1,1.3979883E0,-5.373412E-2,-4.4496068E-1,-4.1641608E-1,-8.385279E-2,6.0433054E-1,1.3333334E0,2.258374E-1,8.696384E-2,-4.877776E-1,6.25E0,6E0,1.4732364E0,1.1111112E0,-4.4210622E-1,-7.555679E-2,7.758866E-2,-2.4364606E-1,-8.599988E-2,7.1468614E-2,2E0,2.2012848E-1,-7.702541E-2,-4.9063206E-1,-7.781133E-2,4.1666665E0,8.4982626E-2,3.644226E-1,4.6E0,7.509626E-2,-6.9256775E-2,1.2637024E-2,4.370924E-2,-6.761005E-2,2.9328322E-2,4.5103602E-2,5.8951788E-3,-6.857454E-2,5.2208614E-2,-4.888476E-4,1.01380765E-1,-5.911048E-2,5.209602E-2,3.486864E-2,-6.252822E-2,-4.7006752E-2,-7.5515024E-2,-4.4646885E-2,6.881754E-2],"split_indices":[4,0,4,1,3,1,1,4,0,1,3,3,0,3,3,0,1,1,0,3,4,1,0,1,4,0,1,4,1,0,0,3,0,0,4,1,0,1,0,4,0,3,4,0,0,0,0,0,0,0,0,0,0,0,0,0,0,0,0,0,0,0,0],"split_type":[0,0,0,0,0,0,0,0,0,0,0,0,0,0,0,0,0,0,0,0,0,0,0,0,0,0,0,0,0,0,0,0,0,0,0,0,0,0,0,0,0,0,0,0,0,0,0,0,0,0,0,0,0,0,0,0,0,0,0,0,0,0,0],"sum_hessian":[1.7165359E3,7.518412E2,9.646947E2,5.9336017E2,1.58481E2,5.5919135E2,4.055034E2,5.9032697E2,3.0332043E0,1.9567812E1,1.389132E2,5.161552E2,4.3036156E1,8.3197266E1,3.2230612E2,2.4617643E0,5.8786523E2,1.0284964E1,9.282847E0,1.1200715E2,2.690604E1,5.1067328E2,5.481907E0,4.5105114E1,3.8092148E1,3.0251056E2,1.9795559E1,1.8983038E2,3.9803482E2,4.842171E0,5.442793E0,1.0507923E2,6.9279156E0,1.1495494E1,1.5410546E1,5.0035257E2,1.0320721E1,1.0369228E1,3.4735886E1,2.7503199E1,1.058895E1,2.961029E2,6.407666E0,1.1851804E1,7.9437556E0,1.6840519E1,1.7298985E2,2.2487264E0,3.957861E2,2.7618435E1,7.74608E1,2.4342763E0,1.297627E1,4.9502408E2,5.32847E0,3.1873195E0,7.1819086E0,2.4010052E1,3.4931476E0,2.4072295E2,5.5379944E1,1.1860685E0,5.2215977E0],"tree_param":{"num_deleted":"0","num_feature":"5","num_nodes":"63","size_leaf_vector":"1"}},{"base_weights":[-8.887802E-3,3.1462777E-1,-6.226446E-1,5.5164224E-1,3.1449344E-2,-4.2711815E-1,-8.695672E-1,5.6204456E-1,-5.7412483E-2,-5.937958E-1,1.0849649E-1,-7.493396E-1,-2.4850188E-1,-1.0700688E0,-3.023973E-1,5.398585E-1,1.2423282E0,-1.22673236E-1,-8.5444406E-2,5.5750513E-1,-4.4776265E-2,-1.7095648E-1,-7.7287324E-2,9.044241E-2,-3.81097E-1,-3.5648844E-1,-1.31709E0,1.7643495E0,-7.810742E-1,5.538782E-1,-7.420935E-2,7.1943894E-2,7.994215E-1,-7.874104E-1,9.512647E-1,6.0434163E-2,4.6216252E-1,-5.554968E-1,2.77646E-1,3.4384316E-1,-8.815146E-1,8.9129436E-1,-4.909306E-1,-7.283997E-2,6.138093E-1,-1.1336174E0,-7.287743E-2,-4.025431E-2,1.0367193E-1,3.1134552E-1,-7.288985E-2,3.2654967E-2,1.96457E-2,-5.9225466E-2,7.191823E-2,-1.3868869E-3,-8.0488816E-2,8.284519E-2,1.8876333E-2,-8.379714E-2,3.0754268E-2,-5.8057673E-2,-1.5265954E-2,4.954439E-2,4.5845155E-3,2.255143E-2,-6.362747E-2,-7.709367E-2,6.9807194E-2,-6.652218E-2,7.694528E-2,-4.686673E-2,-1.23625025E-2,7.944634E-3,1.0235182E-1,-7.3399E-2,8.042168E-2,-6.492901E-2,5.2795745E-2],"categories":[],"categories_nodes":[],"categories_segments":[],"categories_sizes":[],"default_left":[0,0,0,0,0,0,0,0,0,0,0,0,0,0,0,0,0,0,0,0,0,0,0,0,0,0,0,0,0,0,0,0,0,0,0,0,0,0,0,0,0,0,0,0,0,0,0,0,0,0,0,0,0,0,0,0,0,0,0,0,0,0,0,0,0,0,0,0,0,0,0,0,0,0,0,0,0,0,0],"id":11,"left_children":[1,3,5,7,9,11,13,15,-1,17,19,21,23,25,27,29,31,33,-1,35,37,39,-1,-1,41,43,45,47,49,51,-1,-1,53,55,57,-1,59,61,63,65,67,69,71,-1,73,75,-1,-1,-1,77,-1,-1,-1,-1,-1,-1,-1,-1,-1,-1,-1,-1,-1,-1,-1,-1,-1,-1,-1,-1,-1,-1,-1,-1,-1,-1,-1,-1,-1],"loss_changes":[3.3175388E2,7.341668E1,2.747165E1,1.1176239E1,2.4130339E1,1.8450413E1,2.854831E1,8.273209E0,0E0,2.8663992E1,3.0692041E1,5.270166E1,5.7928448E1,3.2525314E1,6.835902E1,1.7156876E1,4.1209984E-1,2.9100693E1,0E0,6.486534E0,5.501032E1,2.5080278E1,0E0,0E0,2.8100855E1,5.3748226E1,1.921463E0,1.2024727E1,4.1605843E1,8.885468E0,0E0,0E0,1.1548873E1,1.5622191E1,5.705021E0,0E0,3.3924236E1,1.9230247E1,2.7082436E1,7.503671E0,4.5376106E1,2.5189869E1,1.9659996E1,0E0,1.7285744E1,6.1617607E1,0E0,0E0,0E0,2.7882963E1,0E0,0E0,0E0,0E0,0E0,0E0,0E0,0E0,0E0,0E0,0E0,0E0,0E0,0E0,0E0,0E0,0E0,0E0,0E0,0E0,0E0,0E0,0E0,0E0,0E0,0E0,0E0,0E0,0E0],"parents":[2147483647,0,0,1,1,2,2,3,3,4,4,5,5,6,6,7,7,9,9,10,10,11,11,12,12,13,13,14,14,15,15,16,16,17,17,19,19,20,20,21,21,24,24,25,25,26,26,27,27,28,28,29,29,32,32,33,33,34,34,36,36,37,37,38,38,39,39,40,40,41,41,42,42,44,44,45,45,49,49],"right_children":[2,4,6,8,10,12,14,16,-1,18,20,22,24,26,28,30,32,34,-1,36,38,40,-1,-1,42,44,46,48,50,52,-1,-1,54,56,58,-1,60,62,64,66,68,70,72,-1,74,76,-1,-1,-1,78,-1,-1,-1,-1,-1,-1,-1,-1,-1,-1,-1,-1,-1,-1,-1,-1,-1,-1,-1,-1,-1,-1,-1,-1,-1,-1,-1,-1,-1],"split_conditions":[7E0,5E0,1E1,1.6544938E0,-4.3925178E-1,-2.6512972E-1,6.111895E-1,9.6042037E-1,-5.7412483E-2,-4.6494192E-1,-3.7645367E-1,-3.793081E-1,-2.5942078E-1,-2.9938322E-1,6.397341E-1,6.737379E-1,5.883538E-1,-5.318374E-1,-8.5444406E-2,-4.6846548E-1,-2.3943958E-1,8E0,-7.7287324E-2,9.044241E-2,-2.7382317E-1,-3.9151385E-1,-5.3738593E-3,1.3E1,1.2E1,-3.1456226E-1,-7.420935E-2,7.1943894E-2,1.4824842E0,-4.9634096E-1,-4.735053E-1,6.0434163E-2,-4.5488578E-1,-3.1456226E-1,-1.380262E-1,-3.878715E-1,-3.8246074E-1,-2.8513956E-1,-3.9627377E-2,-7.283997E-2,-2.557169E-1,-1.1082779E-2,-7.287743E-2,-4.025431E-2,1.0367193E-1,1.3276589E0,-7.288985E-2,3.2654967E-2,1.96457E-2,-5.9225466E-2,7.191823E-2,-1.3868869E-3,-8.0488816E-2,8.284519E-2,1.8876333E-2,-8.379714E-2,3.0754268E-2,-5.8057673E-2,-1.5265954E-2,4.954439E-2,4.5845155E-3,2.255143E-2,-6.362747E-2,-7.709367E-2,6.9807194E-2,-6.652218E-2,7.694528E-2,-4.686673E-2,-1.23625025E-2,7.944634E-3,1.0235182E-1,-7.3399E-2,8.042168E-2,-6.492901E-2,5.2795745E-2],"split_indices":[2,2,2,3,1,1,1,3,0,1,1,1,1,1,1,3,1,3,0,3,1,2,0,0,3,3,1,2,2,3,0,0,3,1,1,0,3,3,3,1,3,3,1,0,3,1,0,0,0,1,0,0,0,0,0,0,0,0,0,0,0,0,0,0,0,0,0,0,0,0,0,0,0,0,0,0,0,0,0],"split_type":[0,0,0,0,0,0,0,0,0,0,0,0,0,0,0,0,0,0,0,0,0,0,0,0,0,0,0,0,0,0,0,0,0,0,0,0,0,0,0,0,0,0,0,0,0,0,0,0,0,0,0,0,0,0,0,0,0,0,0,0,0,0,0,0,0,0,0,0,0,0,0,0,0,0,0,0,0,0,0],"sum_hessian":[1.6688135E3,1.0931132E3,5.757004E2,5.9454407E2,4.9856906E2,3.2281116E2,2.528892E2,5.9159326E2,2.9508276E0,5.3961258E1,4.4460782E2,1.1398623E2,2.0882492E2,1.8618411E2,6.670509E1,5.7464594E2,1.6947308E1,3.871452E1,1.5246737E1,1.12475716E2,3.3213208E2,6.673512E1,4.7251106E1,1.1878339E1,1.9694658E2,4.850598E1,1.3767813E2,1.2039063E1,5.466603E1,5.7141437E2,3.2315896E0,1.0180685E1,6.7666225E0,2.4077827E1,1.4636693E1,1.287357E1,9.960214E1,1.2825378E2,2.0387831E2,3.899751E1,2.7737617E1,1.5084293E1,1.8186229E2,2.2495193E1,2.6010788E1,6.363123E1,7.40469E1,1.1204172E0,1.0918646E1,2.1117079E1,3.354895E1,3.5161523E2,2.197991E2,1.4403744E0,5.326248E0,1.305334E1,1.10244875E1,5.7172055E0,8.919487E0,5.983523E0,9.361862E1,3.6426746E1,9.182703E1,4.1267246E1,1.6261107E2,3.7248474E1,1.749036E0,2.1753653E1,5.983965E0,3.1665456E0,1.19177475E1,6.3213474E1,1.1864881E2,2.0587145E1,5.4236436E0,5.712956E1,6.501672E0,6.4426208E0,1.46744585E1],"tree_param":{"num_deleted":"0","num_feature":"5","num_nodes":"79","size_leaf_vector":"1"}},{"base_weights":[2.8660828E-2,4.7878045E-1,-3.0899504E-1,5.433618E-1,1.4333326E-1,-7.442221E-2,-6.3660103E-1,-5.794199E-2,5.54257E-1,-7.695719E-2,3.5200718E-1,7.5627416E-3,-8.6960113E-1,-1.2321523E-1,-7.864578E-1,5.627989E-1,-5.379144E-2,3.237437E-2,8.0136144E-1,-6.933314E-2,3.4858715E-2,-1.1895362E0,5.066292E-1,-8.1481546E-1,9.6150583E-1,-8.655051E-1,4.7848254E-1,2.9469532E-1,5.924977E-1,7.5142235E-1,-6.448385E-1,1.2385763E-1,1.3353263E0,-3.0086938E-2,5.654668E-1,-7.8646265E-2,6.06377E-1,7.143416E-2,-6.1047193E-2,-6.114608E-2,-7.116793E-2,1.0415349E0,-4.0618654E-2,-9.5164263E-1,3.037289E-1,1.1855273E0,-6.336657E-2,-9.137442E-2,2.411066E-2,4.77367E-2,2.581999E-2,6.950389E-3,8.537104E-2,-9.14626E-2,1.4718482E-2,6.732288E-2,-7.80586E-2,7.620566E-2,-4.940107E-2,9.87412E-4,-8.28382E-2,6.6204704E-2,1.4435902E-2,5.666923E-2,-5.396253E-2,2.7537787E-2,-8.045339E-2,3.608522E-2,8.157512E-2,-3.9635424E-2,-7.085456E-2,7.073558E-2,-6.829664E-2,-4.998301E-2,8.16077E-2],"categories":[],"categories_nodes":[],"categories_segments":[],"categories_sizes":[],"default_left":[0,0,0,0,0,0,0,0,0,0,0,0,0,0,0,0,0,0,0,0,0,0,0,0,0,0,0,0,0,0,0,0,0,0,0,0,0,0,0,0,0,0,0,0,0,0,0,0,0,0,0,0,0,0,0,0,0,0,0,0,0,0,0,0,0,0,0,0,0,0,0,0,0,0,0],"id":12,"left_children":[1,3,5,7,9,11,13,-1,15,-1,17,19,21,23,25,27,-1,29,31,-1,33,35,37,39,41,43,45,47,49,51,53,55,57,59,61,-1,63,-1,-1,65,-1,67,-1,69,71,73,-1,-1,-1,-1,-1,-1,-1,-1,-1,-1,-1,-1,-1,-1,-1,-1,-1,-1,-1,-1,-1,-1,-1,-1,-1,-1,-1,-1,-1],"loss_changes":[2.5434633E2,1.5460693E1,7.343811E1,1.1790344E1,4.1673603E1,3.640898E1,3.0589874E1,0E0,8.93158E0,0E0,1.506102E1,1.935008E1,2.3585785E1,6.928261E1,3.1267227E1,4.5670013E0,0E0,3.088121E1,1.5614336E1,0E0,1.7192907E1,3.0320557E1,1.8544956E1,2.5734177E1,5.958046E0,2.9573822E1,2.4698929E1,2.5306082E1,1.425795E1,1.7758776E1,3.6897285E1,4.3979366E1,1.2160439E1,3.610829E1,1.1039707E1,0E0,8.529857E0,0E0,0E0,2.5698076E1,0E0,5.406479E0,0E0,1.8928482E1,4.0347286E1,1.5189625E1,0E0,0E0,0E0,0E0,0E0,0E0,0E0,0E0,0E0,0E0,0E0,0E0,0E0,0E0,0E0,0E0,0E0,0E0,0E0,0E0,0E0,0E0,0E0,0E0,0E0,0E0,0E0,0E0,0E0],"parents":[2147483647,0,0,1,1,2,2,3,3,4,4,5,5,6,6,8,8,10,10,11,11,12,12,13,13,14,14,15,15,17,17,18,18,20,20,21,21,22,22,23,23,24,24,25,25,26,26,27,27,28,28,29,29,30,30,31,31,32,32,33,33,34,34,36,36,39,39,41,41,43,43,44,44,45,45],"right_children":[2,4,6,8,10,12,14,-1,16,-1,18,20,22,24,26,28,-1,30,32,-1,34,36,38,40,42,44,46,48,50,52,54,56,58,60,62,-1,64,-1,-1,66,-1,68,-1,70,72,74,-1,-1,-1,-1,-1,-1,-1,-1,-1,-1,-1,-1,-1,-1,-1,-1,-1,-1,-1,-1,-1,-1,-1,-1,-1,-1,-1,-1,-1],"split_conditions":[2.3333333E0,5E0,3.2E0,1E0,-3.2512423E-1,3.8252884E-1,-3.7793416E-1,-5.794199E-2,1.6544938E0,-7.695719E-2,4E0,-5.5447024E-1,4E0,-3.9604044E-1,5E0,-5.5447024E-1,-5.379144E-2,2.945673E-2,5.379409E-1,-6.933314E-2,1.652537E-1,2.8449805E0,1.1E1,8E0,3E0,1.3979883E0,1.2904117E-1,1.4E0,-5.0015146E-1,1.5877033E-2,7.582338E-1,-2.7382317E-1,9E0,6.566925E-2,1.9241309E-1,-7.8646265E-2,4.103366E0,7.143416E-2,-6.1047193E-2,-4.8204517E-1,-7.116793E-2,1.3E1,-4.0618654E-2,4.6E0,1.4824842E0,1.5877033E-2,-6.336657E-2,-9.137442E-2,2.411066E-2,4.77367E-2,2.581999E-2,6.950389E-3,8.537104E-2,-9.14626E-2,1.4718482E-2,6.732288E-2,-7.80586E-2,7.620566E-2,-4.940107E-2,9.87412E-4,-8.28382E-2,6.6204704E-2,1.4435902E-2,5.666923E-2,-5.396253E-2,2.7537787E-2,-8.045339E-2,3.608522E-2,8.157512E-2,-3.9635424E-2,-7.085456E-2,7.073558E-2,-6.829664E-2,-4.998301E-2,8.16077E-2],"split_indices":[4,2,4,4,3,3,3,0,3,0,0,3,0,3,0,3,0,3,3,0,3,3,2,2,0,3,3,4,3,3,3,3,2,3,3,0,3,0,0,3,0,2,0,4,3,3,0,0,0,0,0,0,0,0,0,0,0,0,0,0,0,0,0,0,0,0,0,0,0,0,0,0,0,0,0],"split_type":[0,0,0,0,0,0,0,0,0,0,0,0,0,0,0,0,0,0,0,0,0,0,0,0,0,0,0,0,0,0,0,0,0,0,0,0,0,0,0,0,0,0,0,0,0,0,0,0,0,0,0,0,0,0,0,0,0,0,0,0,0,0,0,0,0,0,0,0,0,0,0,0,0,0,0],"sum_hessian":[1.671517E3,7.1626544E2,9.5525146E2,6.0011053E2,1.1615494E2,5.573816E2,3.978699E2,3.146561E0,5.96964E2,1.2113278E1,1.04041664E2,5.0618332E2,5.1198284E1,9.030868E1,3.0756122E2,5.945034E2,2.460562E0,6.1422745E1,4.261892E1,8.763426E0,4.974199E2,4.16512E1,9.547084E0,5.5299473E1,3.5009205E1,2.8976904E2,1.7792175E1,6.037706E1,5.3412634E2,2.9738043E1,3.1684702E1,1.9327639E1,2.329128E1,4.4401627E2,5.340364E1,3.4426125E1,7.225075E0,6.3375616E0,3.2095222E0,2.5195631E1,3.0103842E1,3.3892963E1,1.1162419E0,2.700598E2,1.970922E1,1.2891943E1,4.900233E0,4.1918E0,5.618526E1,9.072361E1,4.4340274E2,1.882446E1,1.0913583E1,1.3593988E1,1.8090714E1,1.1317196E1,8.010442E0,2.185909E1,1.4321895E0,4.3177615E2,1.2240112E1,1.3262859E1,4.014078E1,5.7537856E0,1.4712892E0,1.851912E1,6.6765122E0,2.3419945E1,1.0473019E1,2.0333218E2,6.672762E1,1.1926258E1,7.782963E0,1.9776671E0,1.0914276E1],"tree_param":{"num_deleted":"0","num_feature":"5","num_nodes":"75","size_leaf_vector":"1"}},{"base_weights":[3.827338E-2,3.485219E-1,-5.867522E-1,5.578526E-1,1.0653708E-1,-3.7155813E-1,-8.9117974E-1,5.660011E-1,-5.2273013E-2,-7.136093E-2,1.4881642E-1,-1.031603E0,-1.9322945E-1,-9.464899E-1,5.7196368E-2,4.0857202E-1,6.543109E-1,1.1566364E-1,1.0014691E0,8.524213E-1,-7.897923E-2,1.3164132E0,-3.2329023E-1,-6.424848E-1,-6.961739E-2,6.1128026E-1,-3.9779088E-1,8.7532985E-1,5.3867984E-1,1.3910198E-1,-7.5645305E-2,3.8687703E-1,6.8632774E-2,-5.8856763E-2,6.962404E-2,9.410594E-1,1.0040082E-1,-4.7038728E-1,6.9142133E-1,-8.4430856E-1,4.0334994E-1,1.1441701E-2,3.893166E-2,-8.496164E-3,-9.7067915E-2,3.4800433E-2,5.635215E-2,-8.6937785E-2,2.8341785E-2,5.151299E-3,6.997902E-2,5.9499253E-2,-6.510048E-2,7.0230655E-2,-5.764092E-2,-7.467427E-2,-1.9008854E-2,6.269237E-2,1.28522245E-2,-5.4116428E-2,3.1184528E-2,8.93149E-2,-6.828957E-2],"categories":[],"categories_nodes":[],"categories_segments":[],"categories_sizes":[],"default_left":[0,0,0,0,0,0,0,0,0,0,0,0,0,0,0,0,0,0,0,0,0,0,0,0,0,0,0,0,0,0,0,0,0,0,0,0,0,0,0,0,0,0,0,0,0,0,0,0,0,0,0,0,0,0,0,0,0,0,0,0,0,0,0],"id":13,"left_children":[1,3,5,7,9,11,13,15,-1,-1,17,19,21,23,-1,25,27,29,31,33,-1,35,37,39,-1,41,43,45,47,49,-1,51,-1,-1,-1,53,-1,55,57,59,61,-1,-1,-1,-1,-1,-1,-1,-1,-1,-1,-1,-1,-1,-1,-1,-1,-1,-1,-1,-1,-1,-1],"loss_changes":[3.270964E2,5.7038254E1,3.6327057E1,8.484512E0,3.4195267E1,3.8590168E1,2.708731E1,8.098251E0,0E0,0E0,1.4326209E1,7.3478065E1,5.1609184E1,2.9664825E1,0E0,3.60243E1,9.337814E0,1.9025295E1,3.801279E0,1.9606127E1,0E0,3.529232E0,3.626838E1,2.9027966E1,0E0,1.1043098E1,1.5350331E1,5.094063E0,1.7310867E1,2.199355E1,0E0,1.3137099E1,0E0,0E0,0E0,1.6579296E1,0E0,1.889825E1,7.225152E0,4.0595306E1,5.7885326E1,0E0,0E0,0E0,0E0,0E0,0E0,0E0,0E0,0E0,0E0,0E0,0E0,0E0,0E0,0E0,0E0,0E0,0E0,0E0,0E0,0E0,0E0],"parents":[2147483647,0,0,1,1,2,2,3,3,4,4,5,5,6,6,7,7,10,10,11,11,12,12,13,13,15,15,16,16,17,17,18,18,19,19,21,21,22,22,23,23,25,25,26,26,27,27,28,28,29,29,31,31,35,35,37,37,38,38,39,39,40,40],"right_children":[2,4,6,8,10,12,14,16,-1,-1,18,20,22,24,-1,26,28,30,32,34,-1,36,38,40,-1,42,44,46,48,50,-1,52,-1,-1,-1,54,-1,56,58,60,62,-1,-1,-1,-1,-1,-1,-1,-1,-1,-1,-1,-1,-1,-1,-1,-1,-1,-1,-1,-1,-1,-1],"split_conditions":[7E0,5E0,3.75E0,1.6544938E0,-5.408905E-1,-2.8513956E-1,6E0,-4.0962014E-1,-5.2273013E-2,-7.136093E-2,4E0,-5.499437E-1,-2.6477003E-1,3E0,5.7196368E-2,-4.7299203E-1,-3.1456226E-1,1.3979883E0,2.0297508E-1,-5.5447024E-1,-7.897923E-2,-2.692966E-1,1.3979883E0,2.7841783E-1,-6.961739E-2,-5.5447024E-1,-4.2319983E-1,-3.462482E-1,-3.0098256E-1,1.2169257E0,-7.5645305E-2,-3.0098256E-1,6.8632774E-2,-5.8856763E-2,6.962404E-2,2.75E0,1.0040082E-1,-1.9687155E-1,1.4824842E0,1.4E1,3.644226E-1,1.1441701E-2,3.893166E-2,-8.496164E-3,-9.7067915E-2,3.4800433E-2,5.635215E-2,-8.6937785E-2,2.8341785E-2,5.151299E-3,6.997902E-2,5.9499253E-2,-6.510048E-2,7.0230655E-2,-5.764092E-2,-7.467427E-2,-1.9008854E-2,6.269237E-2,1.28522245E-2,-5.4116428E-2,3.1184528E-2,8.93149E-2,-6.828957E-2],"split_indices":[2,2,4,3,3,3,0,3,0,0,0,3,3,0,0,3,3,3,3,3,0,3,3,3,0,3,3,3,3,3,0,3,0,0,0,4,0,3,3,2,3,0,0,0,0,0,0,0,0,0,0,0,0,0,0,0,0,0,0,0,0,0,0],"split_type":[0,0,0,0,0,0,0,0,0,0,0,0,0,0,0,0,0,0,0,0,0,0,0,0,0,0,0,0,0,0,0,0,0,0,0,0,0,0,0,0,0,0,0,0,0,0,0,0,0,0,0,0,0,0,0,0,0,0,0,0,0,0,0],"sum_hessian":[1.6847637E3,1.1261907E3,5.5857306E2,6.031371E2,5.230536E2,3.285487E2,2.3002435E2,6.0073096E2,2.4060864E0,1.3152896E1,5.0990067E2,6.8867134E1,2.5968158E2,2.2445892E2,5.565427E0,2.1790326E2,3.828277E2,4.919099E2,1.7990757E1,1.5392022E1,5.3475113E1,1.9874346E1,2.3980722E2,1.3491148E2,8.954745E1,1.7432289E2,4.3580376E1,1.2923529E2,2.5359242E2,4.858324E2,6.077501E0,7.543263E0,1.0447494E1,2.9870343E0,1.2404988E1,1.44127865E1,5.46156E0,2.0991365E2,2.9893572E1,1.1324945E2,2.1662033E1,5.3782608E1,1.2054028E2,3.8941727E1,4.6386485E0,7.7668846E1,5.156645E1,2.3549333E0,2.5123749E2,4.73366E2,1.2466418E1,5.3124585E0,2.2308047E0,1.2069876E1,2.3429115E0,1.5748628E1,1.9416502E2,1.2204627E1,1.7688946E1,9.76752E1,1.5574248E1,1.2152587E1,9.509445E0],"tree_param":{"num_deleted":"0","num_feature":"5","num_nodes":"63","size_leaf_vector":"1"}},{"base_weights":[3.9214525E-2,3.1524885E-1,-5.107601E-1,5.074501E-1,8.268352E-2,-3.800091E-1,-9.0574247E-1,7.262447E-1,4.0742183E-1,-4.6230796E-1,1.6412354E-1,-4.9459973E-1,3.9087144E-1,1.09365016E-1,-1.128949E0,8.260449E-2,7.9053E-1,-4.5721695E-2,4.7770458E-1,1.252066E-2,-8.4893316E-2,6.214334E-1,6.728621E-2,-3.2912517E-1,-1.1991479E0,-5.140926E-2,1.122583E0,-3.3770096E-1,6.4009994E-2,-1.2415997E0,4.9757563E-2,-9.125413E-2,5.5581946E-2,5.7304996E-1,8.8057566E-1,4.7945413E-1,-1.0994503E0,5.934867E-2,4.5266595E-1,-6.0567755E-2,2.0063186E-1,4.563441E-1,8.9511514E-1,-6.539258E-1,1.9342105E-1,-4.147409E-1,1.2703526E0,-7.461607E-2,-9.346175E-1,-6.6091317E-1,7.3798144E-1,1.3333867E0,-5.1059395E-2,1.1251475E0,-6.739921E-2,-6.88129E-2,7.319959E-1,3.9736126E-2,-2.1359688E-2,4.5495916E-2,3.429785E-2,3.5119485E-2,-8.385199E-2,-1.9895712E-2,-1.0504397E-1,-8.917325E-2,2.3472399E-2,3.198854E-2,-2.6350234E-2,3.1203387E-2,-8.2831316E-2,1.03949085E-2,6.151367E-2,-8.344361E-2,1.9565185E-3,5.7166606E-2,6.1990186E-3,9.592948E-4,-2.9955674E-2,7.343135E-2,-3.7064206E-2,7.3182635E-2,-7.256903E-2,-6.97612E-2,4.9381804E-2,4.7676634E-2,-4.4895362E-2,7.49822E-2,4.2819023E-2,-5.384199E-2,1.0459044E-1,-4.5405824E-2,6.507243E-2],"categories":[],"categories_nodes":[],"categories_segments":[],"categories_sizes":[],"default_left":[0,0,0,0,0,0,0,0,0,0,0,0,0,0,0,0,0,0,0,0,0,0,0,0,0,0,0,0,0,0,0,0,0,0,0,0,0,0,0,0,0,0,0,0,0,0,0,0,0,0,0,0,0,0,0,0,0,0,0,0,0,0,0,0,0,0,0,0,0,0,0,0,0,0,0,0,0,0,0,0,0,0,0,0,0,0,0,0,0,0,0,0,0],"id":14,"left_children":[1,3,5,7,9,11,13,15,17,19,21,23,25,27,29,31,33,35,37,39,-1,41,43,45,47,49,51,53,-1,55,-1,-1,-1,57,59,61,63,-1,65,-1,67,69,71,73,75,77,79,-1,81,83,85,87,-1,89,-1,-1,91,-1,-1,-1,-1,-1,-1,-1,-1,-1,-1,-1,-1,-1,-1,-1,-1,-1,-1,-1,-1,-1,-1,-1,-1,-1,-1,-1,-1,-1,-1,-1,-1,-1,-1,-1,-1],"loss_changes":[2.5505972E2,4.9957024E1,2.8653152E1,1.3103226E1,2.2593227E1,3.7609024E1,3.1599533E1,7.829582E0,1.3475372E1,3.886991E1,1.9536922E1,4.2647278E1,1.797752E1,1.4016577E1,2.8505722E1,3.8234543E1,2.8903503E0,3.242127E1,5.9588623E0,1.1484347E1,0E0,3.076744E0,3.3419083E1,4.165693E1,4.021576E0,1.7552803E1,1.0808668E1,3.0441956E1,0E0,2.9888214E1,0E0,0E0,0E0,1.2229599E1,6.531525E-2,2.0004448E1,1.2845154E1,0E0,1.4156876E1,0E0,1.4134755E1,1.8808292E1,6.1895123E0,3.8546715E1,2.0456152E1,2.2880188E1,7.2734184E0,0E0,5.0940964E1,2.6245186E1,6.4720097E0,2.59552E-1,0E0,2.0431175E1,0E0,0E0,8.274309E0,0E0,0E0,0E0,0E0,0E0,0E0,0E0,0E0,0E0,0E0,0E0,0E0,0E0,0E0,0E0,0E0,0E0,0E0,0E0,0E0,0E0,0E0,0E0,0E0,0E0,0E0,0E0,0E0,0E0,0E0,0E0,0E0,0E0,0E0,0E0,0E0],"parents":[2147483647,0,0,1,1,2,2,3,3,4,4,5,5,6,6,7,7,8,8,9,9,10,10,11,11,12,12,13,13,14,14,15,15,16,16,17,17,18,18,19,19,21,21,22,22,23,23,24,24,25,25,26,26,27,27,29,29,33,33,34,34,35,35,36,36,38,38,40,40,41,41,42,42,43,43,44,44,45,45,46,46,48,48,49,49,50,50,51,51,53,53,56,56],"right_children":[2,4,6,8,10,12,14,16,18,20,22,24,26,28,30,32,34,36,38,40,-1,42,44,46,48,50,52,54,-1,56,-1,-1,-1,58,60,62,64,-1,66,-1,68,70,72,74,76,78,80,-1,82,84,86,88,-1,90,-1,-1,92,-1,-1,-1,-1,-1,-1,-1,-1,-1,-1,-1,-1,-1,-1,-1,-1,-1,-1,-1,-1,-1,-1,-1,-1,-1,-1,-1,-1,-1,-1,-1,-1,-1,-1,-1,-1],"split_conditions":[7E0,5E0,1.2E1,-4.4496068E-1,-4.2783394E-1,7.596214E-1,3.5E0,1.4E0,-3.9928934E-1,-4.5637852E-1,-3.9072594E-1,1.0880454E-1,4E0,3.3333333E0,1E1,-4.7635975E-1,4E0,4E0,-3.9643487E-1,-4.9919543E-1,-8.4893316E-2,-3.9928934E-1,-3.3934566E-1,8.31144E-2,3.1718013E-1,3.4E0,1.1E1,-1.7093253E-1,6.4009994E-2,6E0,4.9757563E-2,-9.125413E-2,5.5581946E-2,-4.7635975E-1,-4.5637852E-1,-4.1356164E-1,-4.2783394E-1,5.934867E-2,-3.935804E-1,-6.0567755E-2,-4.735053E-1,-4.0499824E-1,2.6E0,2.6E0,-3.3363676E-1,-3.793081E-1,1E1,-7.461607E-2,3.3430687E-1,2.8890486E0,1.4732364E0,1.4732364E0,-5.1059395E-2,-1.880593E-1,-6.739921E-2,-6.88129E-2,3E1,3.9736126E-2,-2.1359688E-2,4.5495916E-2,3.429785E-2,3.5119485E-2,-8.385199E-2,-1.9895712E-2,-1.0504397E-1,-8.917325E-2,2.3472399E-2,3.198854E-2,-2.6350234E-2,3.1203387E-2,-8.2831316E-2,1.03949085E-2,6.151367E-2,-8.344361E-2,1.9565185E-3,5.7166606E-2,6.1990186E-3,9.592948E-4,-2.9955674E-2,7.343135E-2,-3.7064206E-2,7.3182635E-2,-7.256903E-2,-6.97612E-2,4.9381804E-2,4.7676634E-2,-4.4895362E-2,7.49822E-2,4.2819023E-2,-5.384199E-2,1.0459044E-1,-4.5405824E-2,6.507243E-2],"split_indices":[2,2,2,1,1,1,4,4,1,1,1,1,0,4,4,1,2,2,1,1,0,1,1,1,1,4,2,1,0,0,0,0,0,1,1,1,1,0,1,0,1,1,4,4,1,1,2,0,1,1,1,1,0,1,0,0,2,0,0,0,0,0,0,0,0,0,0,0,0,0,0,0,0,0,0,0,0,0,0,0,0,0,0,0,0,0,0,0,0,0,0,0,0],"split_type":[0,0,0,0,0,0,0,0,0,0,0,0,0,0,0,0,0,0,0,0,0,0,0,0,0,0,0,0,0,0,0,0,0,0,0,0,0,0,0,0,0,0,0,0,0,0,0,0,0,0,0,0,0,0,0,0,0,0,0,0,0,0,0,0,0,0,0,0,0,0,0,0,0,0,0,0,0,0,0,0,0,0,0,0,0,0,0,0,0,0,0,0,0],"sum_hessian":[1.6780432E3,1.1175616E3,5.6048157E2,6.112326E2,5.0632904E2,4.2256268E2,1.3791885E2,1.8980551E2,4.214271E2,6.521796E1,4.4111108E2,3.6819E2,5.4372677E1,2.495186E1,1.12966995E2,1.7443361E1,1.7236215E2,5.6633804E1,3.647933E2,4.7827553E1,1.73904E1,7.613758E1,3.649735E2,2.9934995E2,6.884005E1,3.4468216E1,1.990446E1,1.8571991E1,6.379868E0,1.07672134E2,5.2948656E0,5.8411293E0,1.1602231E1,5.2625046E1,1.19737114E2,3.815996E1,1.847384E1,1.0856474E1,3.5393683E2,5.6471167E0,4.2180435E1,4.9154327E1,2.6983253E1,5.3706562E1,3.1126694E2,2.8484375E2,1.4506219E1,3.0450737E1,3.838931E1,1.954212E1,1.4926095E1,1.84666E1,1.4378597E0,7.540281E0,1.1031711E1,1.0107824E2,6.5938945E0,4.3246326E1,9.378718E0,1.0085572E2,1.8881393E1,3.5195763E1,2.964202E0,1.1685256E1,6.7885847E0,1.8523067E0,3.520845E2,2.6380306E1,1.5800131E1,4.6192318E1,2.9620109E0,9.3769045E0,1.7606348E1,2.122119E1,3.248537E1,2.0150743E1,2.911162E2,8.5205574E1,1.9963817E2,1.3450428E1,1.0557904E0,6.4806414E0,3.1908669E1,1.3626261E1,5.915859E0,1.35569E1,1.3691951E0,1.2103971E1,6.3626294E0,2.265546E0,5.274735E0,1.5461175E0,5.0477767E0],"tree_param":{"num_deleted":"0","num_feature":"5","num_nodes":"93","size_leaf_vector":"1"}},{"base_weights":[-1.0574394E-2,4.3264455E-1,-3.6495352E-1,4.3957344E-1,-5.507615E-2,-1.1915967E-1,-8.899031E-1,-5.3532314E-2,4.4630286E-1,1.9159075E-2,-6.060085E-1,-2.9110423E-1,-1.1557726E0,5.959904E-1,3.772302E-1,-7.2025366E-2,4.9139332E-2,-3.3674094E-1,-6.929938E-2,-7.494064E-2,7.8219E-2,-1.2357558E0,5.744294E-3,4.8541585E-1,1.1270823E0,-5.6518596E-1,4.2940712E-1,-7.7184804E-2,4.5044214E-1,-6.8220876E-2,9.649817E-2,-8.151328E-2,3.627797E-1,-7.674521E-2,-9.131817E-1,6.198117E-2,-6.2331762E-2,2.7244527E-2,-8.264963E-2,6.9064654E-2,1.1194262E-2,1.3267244E-2,-9.0823986E-2,4.945259E-3,2.3297196E-2,1.19152665E-2,-2.5280876E-2,4.7883186E-2,-9.739436E-3,6.1743446E-2,-2.6874516E-2,6.992997E-2,3.4288384E-3,-6.6811256E-2,-2.871471E-2],"categories":[],"categories_nodes":[],"categories_segments":[],"categories_sizes":[],"default_left":[0,0,0,0,0,0,0,0,0,0,0,0,0,0,0,0,0,0,0,0,0,0,0,0,0,0,0,0,0,0,0,0,0,0,0,0,0,0,0,0,0,0,0,0,0,0,0,0,0,0,0,0,0,0,0],"id":15,"left_children":[1,3,5,7,-1,9,11,-1,13,15,17,19,21,23,25,-1,27,29,-1,-1,31,33,35,37,39,41,43,45,47,-1,49,-1,51,-1,53,-1,-1,-1,-1,-1,-1,-1,-1,-1,-1,-1,-1,-1,-1,-1,-1,-1,-1,-1,-1],"loss_changes":[2.5120996E2,8.038208E0,1.1456807E2,7.6746826E0,0E0,4.0851757E1,4.4760834E1,0E0,7.0717316E0,2.0781221E1,2.7721184E1,3.9563213E1,1.8200378E1,1.2437096E1,2.4121262E1,0E0,2.3592518E1,4.5140472E1,0E0,0E0,3.397969E1,1.6278778E1,2.2579565E1,2.4398224E1,8.265133E0,2.740563E1,5.5171204E0,4.8009586E1,3.664666E1,0E0,5.2660507E1,0E0,1.8093792E1,0E0,1.222538E1,0E0,0E0,0E0,0E0,0E0,0E0,0E0,0E0,0E0,0E0,0E0,0E0,0E0,0E0,0E0,0E0,0E0,0E0,0E0,0E0],"parents":[2147483647,0,0,1,1,2,2,3,3,5,5,6,6,8,8,9,9,10,10,11,11,12,12,13,13,14,14,16,16,17,17,20,20,21,21,22,22,23,23,24,24,25,25,26,26,27,27,28,28,30,30,32,32,34,34],"right_children":[2,4,6,8,-1,10,12,-1,14,16,18,20,22,24,26,-1,28,30,-1,-1,32,34,36,38,40,42,44,46,48,-1,50,-1,52,-1,54,-1,-1,-1,-1,-1,-1,-1,-1,-1,-1,-1,-1,-1,-1,-1,-1,-1,-1,-1,-1],"split_conditions":[2.3333333E0,5E0,-1.16697796E-1,1E0,-5.507615E-2,3.6E0,2.75E0,-5.3532314E-2,-4.5035923E-1,2.4E0,-2.5942078E-1,2.5E0,5E0,-4.3068838E-1,-4.0962014E-1,-7.2025366E-2,-2.451485E-1,-3.9151385E-1,-6.929938E-2,-7.494064E-2,1.4607361E-2,3.8E0,3.5E0,-4.3925178E-1,1.75E0,-4.1356164E-1,-3.5530135E-1,-3.7645367E-1,-1.244465E-1,-6.8220876E-2,-3.793081E-1,-8.151328E-2,3.744304E-2,-7.674521E-2,3.0255952E-1,6.198117E-2,-6.2331762E-2,2.7244527E-2,-8.264963E-2,6.9064654E-2,1.1194262E-2,1.3267244E-2,-9.0823986E-2,4.945259E-3,2.3297196E-2,1.19152665E-2,-2.5280876E-2,4.7883186E-2,-9.739436E-3,6.1743446E-2,-2.6874516E-2,6.992997E-2,3.4288384E-3,-6.6811256E-2,-2.871471E-2],"split_indices":[4,0,1,4,0,4,4,0,3,4,1,4,0,1,3,0,1,3,0,0,1,4,4,1,4,1,3,1,3,0,1,0,1,0,3,0,0,0,0,0,0,0,0,0,0,0,0,0,0,0,0,0,0,0,0],"split_type":[0,0,0,0,0,0,0,0,0,0,0,0,0,0,0,0,0,0,0,0,0,0,0,0,0,0,0,0,0,0,0,0,0,0,0,0,0,0,0,0,0,0,0,0,0,0,0,0,0,0,0,0,0,0,0],"sum_hessian":[1.5973702E3,7.096261E2,8.8774414E2,7.071458E2,2.4802637E0,6.054739E2,2.8227023E2,2.4356613E0,7.0471014E2,4.722605E2,1.332134E2,8.7437004E1,1.9483322E2,2.2010075E2,4.8460938E2,8.557711E0,4.637028E2,1.0009122E2,3.3122177E1,1.976056E1,6.7676445E1,1.8222136E2,1.2611862E1,1.8375627E2,3.634449E1,2.4907095E1,4.597023E2,3.5329764E2,1.1040516E2,2.9044968E1,7.104625E1,8.987429E0,5.868902E1,9.259365E1,8.9627716E1,6.357984E0,6.253878E0,1.7950885E2,4.2474194E0,2.7948782E1,8.395707E0,1.5444164E1,9.462931E0,4.612995E1,4.1357236E2,2.0372325E2,1.4957437E2,6.1542137E1,4.886302E1,2.507484E1,4.597141E1,1.2151737E1,4.653728E1,3.855517E1,5.1072548E1],"tree_param":{"num_deleted":"0","num_feature":"5","num_nodes":"55","size_leaf_vector":"1"}},{"base_weights":[3.561003E-2,2.2872221E-1,-6.288109E-1,4.2153415E-1,-4.6190196E-3,-5.9457712E-2,-7.845377E-1,5.7248724E-1,2.9901117E-1,-7.5282894E-2,4.913913E-2,-5.7862467E-1,6.1142075E-1,-9.4308233E-1,-1.967885E-1,-5.4120075E-2,5.914436E-1,-7.583229E-1,3.51484E-1,1.15753114E-1,-5.172981E-1,2.163007E-2,-6.5418676E-2,7.468465E-1,-5.012309E-2,-5.362097E-1,-1.1218618E0,9.2401095E-2,-6.955421E-1,4.3367997E-2,6.3883483E-1,-1.375674E-1,-8.453123E-2,3.0813584E-1,9.104899E-1,7.679043E-2,7.093115E-2,-7.047614E-2,2.3086052E-1,4.8126894E-1,-6.8855636E-2,1.3473552E0,5.4558796E-1,-6.9101624E-2,4.1778564E-1,-7.0368074E-2,-8.465492E-1,-6.652799E-2,2.3521492E-1,-8.2294084E-2,2.1897862E-2,3.5935048E-2,1.4643545E-2,-8.4150925E-2,7.448846E-2,1.7102018E-2,-8.246803E-2,5.9021067E-2,1.4716673E-2,6.369322E-3,-3.7514236E-2,3.1079024E-2,-6.627234E-2,-8.711111E-3,9.206924E-2,9.117033E-2,-3.842533E-2,-6.5475576E-2,4.6462577E-2,6.7692794E-2,-1.783391E-2,8.3740614E-2,-5.4343104E-2,6.318968E-2,-6.2606E-2],"categories":[],"categories_nodes":[],"categories_segments":[],"categories_sizes":[],"default_left":[0,0,0,0,0,0,0,0,0,0,0,0,0,0,0,0,0,0,0,0,0,0,0,0,0,0,0,0,0,0,0,0,0,0,0,0,0,0,0,0,0,0,0,0,0,0,0,0,0,0,0,0,0,0,0,0,0,0,0,0,0,0,0,0,0,0,0,0,0,0,0,0,0,0,0],"id":16,"left_children":[1,3,5,7,9,11,13,15,17,-1,19,21,23,25,27,-1,29,31,33,35,37,39,-1,41,-1,43,45,-1,47,49,51,53,-1,55,57,59,-1,-1,61,63,-1,65,67,-1,69,-1,71,-1,73,-1,-1,-1,-1,-1,-1,-1,-1,-1,-1,-1,-1,-1,-1,-1,-1,-1,-1,-1,-1,-1,-1,-1,-1,-1,-1],"loss_changes":[2.064068E2,5.6073387E1,3.2074585E1,1.2450249E1,4.5654785E1,2.783101E1,2.6315353E1,1.0197052E1,2.128133E1,0E0,2.0673372E1,1.973436E1,8.3770485E0,1.567131E1,6.419084E1,0E0,7.8122635E0,1.0315074E1,8.480415E0,2.4746567E1,3.882074E1,1.7164824E1,0E0,3.2258396E0,0E0,5.722818E1,1.0952911E1,0E0,3.00501E1,1.7448301E1,7.463814E0,3.2760735E1,0E0,2.2932808E1,3.8948917E0,2.0034487E1,0E0,0E0,2.0419863E1,1.820528E1,0E0,9.002393E0,1.9883755E1,0E0,2.4958435E1,0E0,5.0999424E1,0E0,3.4098625E1,0E0,0E0,0E0,0E0,0E0,0E0,0E0,0E0,0E0,0E0,0E0,0E0,0E0,0E0,0E0,0E0,0E0,0E0,0E0,0E0,0E0,0E0,0E0,0E0,0E0,0E0],"parents":[2147483647,0,0,1,1,2,2,3,3,4,4,5,5,6,6,7,7,8,8,10,10,11,11,12,12,13,13,14,14,16,16,17,17,18,18,19,19,20,20,21,21,23,23,25,25,26,26,28,28,29,29,30,30,31,31,33,33,34,34,35,35,38,38,39,39,41,41,42,42,44,44,46,46,48,48],"right_children":[2,4,6,8,10,12,14,16,18,-1,20,22,24,26,28,-1,30,32,34,36,38,40,-1,42,-1,44,46,-1,48,50,52,54,-1,56,58,60,-1,-1,62,64,-1,66,68,-1,70,-1,72,-1,74,-1,-1,-1,-1,-1,-1,-1,-1,-1,-1,-1,-1,-1,-1,-1,-1,-1,-1,-1,-1,-1,-1,-1,-1,-1,-1],"split_conditions":[3.2E0,2.2E0,-3.793081E-1,1.6666666E0,-5.318374E-1,-4.1867325E-1,6.111895E-1,1E0,1.75E0,-7.5282894E-2,3.5143363E-1,3.6E0,4.6E0,-2.5942078E-1,6.397341E-1,-5.4120075E-2,-4.9634096E-1,7.740548E-2,9.6042037E-1,3.1718013E-1,9.33261E-1,-4.4496068E-1,-6.5418676E-2,-4.021438E-1,-5.012309E-2,-2.692966E-1,-1.1082779E-2,9.2401095E-2,1.3979883E0,1.25E0,-1.3667902E-1,1.4607361E-2,-8.453123E-2,6.0433054E-1,1.2712445E0,1.0880454E-1,7.093115E-2,-7.047614E-2,2.75E0,-4.4781515E-1,-6.8855636E-2,3.6E0,-3.9072594E-1,-6.9101624E-2,-2.9938322E-1,-7.0368074E-2,-5.3738593E-3,-6.652799E-2,1.4732364E0,-8.2294084E-2,2.1897862E-2,3.5935048E-2,1.4643545E-2,-8.4150925E-2,7.448846E-2,1.7102018E-2,-8.246803E-2,5.9021067E-2,1.4716673E-2,6.369322E-3,-3.7514236E-2,3.1079024E-2,-6.627234E-2,-8.711111E-3,9.206924E-2,9.117033E-2,-3.842533E-2,-6.5475576E-2,4.6462577E-2,6.7692794E-2,-1.783391E-2,8.3740614E-2,-5.4343104E-2,6.318968E-2,-6.2606E-2],"split_indices":[4,4,1,4,3,3,1,4,4,0,1,4,4,1,1,0,1,1,3,1,3,1,0,1,0,3,1,0,3,4,1,1,0,3,3,1,0,0,4,1,0,4,1,0,1,0,1,0,1,0,0,0,0,0,0,0,0,0,0,0,0,0,0,0,0,0,0,0,0,0,0,0,0,0,0],"split_type":[0,0,0,0,0,0,0,0,0,0,0,0,0,0,0,0,0,0,0,0,0,0,0,0,0,0,0,0,0,0,0,0,0,0,0,0,0,0,0,0,0,0,0,0,0,0,0,0,0,0,0,0,0,0,0,0,0,0,0,0,0,0,0,0,0,0,0,0,0,0,0,0,0,0,0],"sum_hessian":[1.6065641E3,1.245282E3,3.6128217E2,6.8141565E2,5.638663E2,7.789002E1,2.8339215E2,3.0364307E2,3.777726E2,1.8562235E1,5.453041E2,4.398739E1,3.3902634E1,2.2271144E2,6.0680702E1,2.8034434E0,3.008396E2,1.7225468E1,3.6054715E2,4.8863538E2,5.6668705E1,2.46675E1,1.931989E1,3.1773645E1,2.1289866E0,6.920699E1,1.5350444E2,1.1368084E1,4.931262E1,2.409524E1,2.767444E2,1.1029345E1,6.196124E0,3.360401E2,2.4507038E1,4.754751E2,1.3160274E1,2.544272E1,3.1225985E1,1.9060112E1,5.607388E0,6.5463133E0,2.5227333E1,3.6445415E1,3.276158E1,7.333945E1,8.016499E1,2.9057987E1,2.0254633E1,3.9621246E0,2.0133114E1,2.2396455E2,5.2779816E1,5.6394486E0,5.3898954E0,3.311301E2,4.91002E0,1.6404587E1,8.102451E0,4.488621E2,2.661299E1,2.5439785E1,5.7861996E0,1.344997E1,5.6101418E0,5.456799E0,1.0895144E0,3.9097307E0,2.1317602E1,1.4494461E1,1.826712E1,6.4562936E0,7.37087E1,1.20628E1,8.191833E0],"tree_param":{"num_deleted":"0","num_feature":"5","num_nodes":"75","size_leaf_vector":"1"}},{"base_weights":[5.3670716E-2,3.010226E-1,-4.5831475E-1,4.8649216E-1,7.962259E-2,-2.6740316E-1,-7.2121114E-1,4.951979E-1,-5.396492E-2,-3.4862552E-3,3.922917E-1,-4.160031E-1,5.3637967E-2,-1.0016983E0,-5.9287965E-2,4.7607693E-1,1.1224184E0,8.7231815E-2,-1.1801926E0,1.0312968E0,8.265134E-2,-1.7275064E-1,-7.297761E-2,1.1434298E0,-2.8628683E-1,-2.9949012E-1,-6.689685E-2,1.4875646E0,-6.4345556E-1,4.9344084E-1,-8.240854E-2,6.603237E-2,6.97724E-1,1.07618E-2,7.887859E-1,-9.515099E-2,4.2470542E-1,1.2587343E0,3.450326E-1,-7.176629E-1,3.610342E-1,-2.5199854E-1,8.4585644E-2,-6.4923815E-2,1.703936E0,-5.1678085E-1,6.204067E-1,-5.9072155E-1,8.727875E-2,8.475825E-2,-4.0255543E-2,2.3578347E-1,-6.492622E-2,2.6038105E-2,5.5004614E-3,-5.961275E-2,6.638678E-2,3.4783257E-3,-9.36032E-2,-8.178286E-2,5.6804385E-2,7.559758E-2,-7.5582944E-2,7.145663E-2,3.5818573E-2,-8.130212E-2,8.287027E-2,2.6537433E-2,-8.557625E-2,7.082713E-2,1.1543463E-3,-1.7833829E-2,3.0908644E-2,9.500949E-2,-4.068353E-2,1.2165482E-2,-4.961131E-2,-6.197023E-2,5.812309E-2,3.709771E-2,-4.421819E-2,-6.0244393E-2,4.501798E-2],"categories":[],"categories_nodes":[],"categories_segments":[],"categories_sizes":[],"default_left":[0,0,0,0,0,0,0,0,0,0,0,0,0,0,0,0,0,0,0,0,0,0,0,0,0,0,0,0,0,0,0,0,0,0,0,0,0,0,0,0,0,0,0,0,0,0,0,0,0,0,0,0,0,0,0,0,0,0,0,0,0,0,0,0,0,0,0,0,0,0,0,0,0,0,0,0,0,0,0,0,0,0,0],"id":17,"left_children":[1,3,5,7,9,11,13,15,-1,17,19,21,23,25,27,29,31,33,35,37,39,41,-1,43,45,47,-1,49,51,53,-1,-1,55,57,59,-1,61,63,65,67,69,71,-1,-1,73,75,77,79,-1,-1,-1,81,-1,-1,-1,-1,-1,-1,-1,-1,-1,-1,-1,-1,-1,-1,-1,-1,-1,-1,-1,-1,-1,-1,-1,-1,-1,-1,-1,-1,-1,-1,-1],"loss_changes":[2.0768732E2,4.536158E1,2.6621552E1,8.732849E0,1.3129025E1,1.4863459E1,4.1559654E1,6.6470184E0,0E0,4.2812756E1,2.0906511E1,5.3759346E1,3.711972E1,3.6759567E1,6.2205627E1,2.23107E1,5.078602E-1,1.9969482E1,3.4109577E1,4.957077E0,1.6423033E1,2.6089128E1,0E0,3.4806763E1,1.6309162E1,3.2149597E1,0E0,1.0352116E1,2.904588E1,6.006775E0,0E0,0E0,1.0540499E1,3.7420776E1,3.2665436E1,0E0,2.2773859E1,1.338974E0,2.8500126E1,2.4554825E1,1.9405252E1,1.5475343E1,0E0,0E0,1.1329456E1,2.2482214E1,1.7531397E1,1.8846136E1,0E0,0E0,0E0,2.2292427E1,0E0,0E0,0E0,0E0,0E0,0E0,0E0,0E0,0E0,0E0,0E0,0E0,0E0,0E0,0E0,0E0,0E0,0E0,0E0,0E0,0E0,0E0,0E0,0E0,0E0,0E0,0E0,0E0,0E0,0E0,0E0],"parents":[2147483647,0,0,1,1,2,2,3,3,4,4,5,5,6,6,7,7,9,9,10,10,11,11,12,12,13,13,14,14,15,15,16,16,17,17,18,18,19,19,20,20,21,21,23,23,24,24,25,25,27,27,28,28,29,29,32,32,33,33,34,34,36,36,37,37,38,38,39,39,40,40,41,41,44,44,45,45,46,46,47,47,51,51],"right_children":[2,4,6,8,10,12,14,16,-1,18,20,22,24,26,28,30,32,34,36,38,40,42,-1,44,46,48,-1,50,52,54,-1,-1,56,58,60,-1,62,64,66,68,70,72,-1,-1,74,76,78,80,-1,-1,-1,82,-1,-1,-1,-1,-1,-1,-1,-1,-1,-1,-1,-1,-1,-1,-1,-1,-1,-1,-1,-1,-1,-1,-1,-1,-1,-1,-1,-1,-1,-1,-1],"split_conditions":[7E0,5E0,1E1,1.6544938E0,1.4607361E-2,4.600642E-2,6.111895E-1,9.6042037E-1,-5.396492E-2,-5.3530306E-2,1.0024116E-1,-1.244465E-1,1.0880454E-1,-3.1456226E-1,3.1463036E-1,6.3148993E-1,5.883538E-1,-1.9376822E-1,1.652537E-1,2.7841783E-1,3.0290782E-1,-1.2897307E-1,-7.297761E-2,6.1142687E-2,4E0,-3.1908882E-1,-6.689685E-2,7.082411E-1,1.2E1,7.321353E-2,-8.240854E-2,6.603237E-2,1.4824842E0,-2.2802174E-1,6E0,-9.515099E-2,-3.391846E-2,6E0,9.453224E-2,1.652537E-1,3.5143363E-1,-1.2811564E-1,8.4585644E-2,-6.4923815E-2,3.644226E-1,3.0255952E-1,9.166167E-1,-5.499437E-1,8.727875E-2,8.475825E-2,-4.0255543E-2,1.3276589E0,-6.492622E-2,2.6038105E-2,5.5004614E-3,-5.961275E-2,6.638678E-2,3.4783257E-3,-9.36032E-2,-8.178286E-2,5.6804385E-2,7.559758E-2,-7.5582944E-2,7.145663E-2,3.5818573E-2,-8.130212E-2,8.287027E-2,2.6537433E-2,-8.557625E-2,7.082713E-2,1.1543463E-3,-1.7833829E-2,3.0908644E-2,9.500949E-2,-4.068353E-2,1.2165482E-2,-4.961131E-2,-6.197023E-2,5.812309E-2,3.709771E-2,-4.421819E-2,-6.0244393E-2,4.501798E-2],"split_indices":[2,2,2,3,1,1,1,3,0,3,1,3,1,3,3,3,1,1,3,3,1,3,0,3,0,3,0,1,2,3,0,0,3,1,2,0,1,2,1,3,1,1,0,0,3,3,1,3,0,0,0,1,0,0,0,0,0,0,0,0,0,0,0,0,0,0,0,0,0,0,0,0,0,0,0,0,0,0,0,0,0,0,0],"split_type":[0,0,0,0,0,0,0,0,0,0,0,0,0,0,0,0,0,0,0,0,0,0,0,0,0,0,0,0,0,0,0,0,0,0,0,0,0,0,0,0,0,0,0,0,0,0,0,0,0,0,0,0,0,0,0,0,0,0,0,0,0,0,0,0,0,0,0,0,0,0,0,0,0,0,0,0,0,0,0,0,0,0,0],"sum_hessian":[1.6378851E3,1.1046267E3,5.332584E2,6.0043634E2,5.0419037E2,3.1009152E2,2.2316687E2,5.977964E2,2.6399815E0,3.9909738E2,1.0509301E2,2.1177274E2,9.831879E1,1.5638576E2,6.6781105E1,5.8181854E2,1.597784E1,3.713909E2,2.770648E1,3.354191E1,7.15511E1,1.7268517E2,3.9087566E1,2.2813955E1,7.550484E1,5.124834E1,1.0513742E2,1.7882498E1,4.889861E1,5.7786273E2,3.9558263E0,9.455011E0,6.5228295E0,3.3580338E2,3.5587524E1,1.8974728E1,8.731753E0,2.4566162E1,8.975747E0,1.8058195E1,5.349291E1,1.6647412E2,6.211041E0,4.013237E0,1.8800716E1,6.0543804E1,1.4961032E1,4.548247E1,5.7658706E0,1.6636673E1,1.2458247E0,2.115041E1,2.77482E1,5.390918E2,3.8770924E1,1.40763E0,5.1151996E0,3.2656702E2,9.2363405E0,3.9943268E0,3.1593197E1,5.7323084E0,2.9994447E0,1.7449045E1,7.117117E0,3.4920173E0,5.48373E0,8.210626E0,9.847569E0,1.2199305E1,4.1293606E1,1.491251E2,1.7349028E1,1.7668642E1,1.1320759E0,2.3485685E1,3.7058117E1,3.0860806E0,1.1874951E1,7.936493E0,3.754598E1,6.420027E0,1.4730383E1],"tree_param":{"num_deleted":"0","num_feature":"5","num_nodes":"83","size_leaf_vector":"1"}},{"base_weights":[-4.6063118E-2,1.390989E-1,-7.014108E-1,4.043656E-1,-9.702473E-2,-9.8632075E-2,-8.73239E-1,4.2406225E-1,-7.02094E-2,-3.1466922E-1,8.98437E-2,-9.2114645E-1,6.6119033E-1,-9.1779876E-1,4.6249248E-2,3.9163068E-1,8.6440575E-1,-2.1059415E-1,-8.929207E-2,5.1077005E-2,2.9584164E-2,4.720303E-1,-6.9632396E-2,2.8985623E-1,7.999829E-2,-5.4456085E-1,-1.1851941E0,4.0683487E-1,-9.8139495E-2,1.1175764E0,4.023241E-1,-7.264318E-2,-1.4043932E-1,-2.1867178E-2,7.875612E-1,-4.888433E-2,4.794559E-2,5.185926E-1,-5.634273E-2,-9.3260026E-1,6.5499705E-1,-6.5458015E-2,-7.853178E-1,-5.0087668E-2,2.0728076E-2,6.517298E-2,2.9026914E-2,-7.970272E-2,5.379386E-2,2.28909E-2,-1.3640097E-2,4.860183E-3,-1.8701201E-2,5.2746397E-2,-5.5351794E-2,5.8854025E-2,1.1700917E-2,-6.950276E-2,-2.9017767E-2,7.729682E-2,-1.1690923E-2,7.3432475E-2,-6.511386E-2],"categories":[],"categories_nodes":[],"categories_segments":[],"categories_sizes":[],"default_left":[0,0,0,0,0,0,0,0,0,0,0,0,0,0,0,0,0,0,0,0,0,0,0,0,0,0,0,0,0,0,0,0,0,0,0,0,0,0,0,0,0,0,0,0,0,0,0,0,0,0,0,0,0,0,0,0,0,0,0,0,0,0,0],"id":18,"left_children":[1,3,5,7,9,11,13,15,-1,17,19,21,23,25,-1,27,29,31,-1,-1,33,35,-1,37,-1,39,41,43,-1,45,47,-1,49,51,53,-1,-1,55,-1,57,59,-1,61,-1,-1,-1,-1,-1,-1,-1,-1,-1,-1,-1,-1,-1,-1,-1,-1,-1,-1,-1,-1],"loss_changes":[1.8799023E2,7.571164E1,3.5261368E1,2.0869965E1,2.6057022E1,4.8625977E1,2.2118622E1,7.712929E0,0E0,4.4925102E1,1.9345823E1,2.5166754E1,1.366144E1,2.5256027E1,0E0,1.9661392E1,3.97785E0,2.3976486E1,0E0,0E0,1.2698918E1,8.123978E0,0E0,1.0389021E1,0E0,5.189467E1,6.4250793E0,6.1225433E0,0E0,1.627922E0,2.1829344E1,0E0,2.1008911E1,1.2845772E1,1.1652022E1,0E0,0E0,4.7344007E0,0E0,1.2673721E1,2.2151129E1,0E0,4.628362E1,0E0,0E0,0E0,0E0,0E0,0E0,0E0,0E0,0E0,0E0,0E0,0E0,0E0,0E0,0E0,0E0,0E0,0E0,0E0,0E0],"parents":[2147483647,0,0,1,1,2,2,3,3,4,4,5,5,6,6,7,7,9,9,10,10,11,11,12,12,13,13,15,15,16,16,17,17,20,20,21,21,23,23,25,25,26,26,27,27,29,29,30,30,32,32,33,33,34,34,37,37,39,39,40,40,42,42],"right_children":[2,4,6,8,10,12,14,16,-1,18,20,22,24,26,-1,28,30,32,-1,-1,34,36,-1,38,-1,40,42,44,-1,46,48,-1,50,52,54,-1,-1,56,-1,58,60,-1,62,-1,-1,-1,-1,-1,-1,-1,-1,-1,-1,-1,-1,-1,-1,-1,-1,-1,-1,-1,-1],"split_conditions":[3.2E0,5E0,-3.793081E-1,5.883538E-1,-2.3943958E-1,-4.0499824E-1,3.4E1,1.687482E-1,-7.02094E-2,-2.7654755E-1,-2.2802174E-1,-4.877776E-1,6.25E0,1E1,4.6249248E-2,8.31144E-2,2.7150875E-1,2.4E0,-8.929207E-2,5.1077005E-2,2.4180627E0,-4.9063206E-1,-6.9632396E-2,1E1,7.999829E-2,4.600642E-2,6.111895E-1,1E0,-9.8139495E-2,1.6666666E0,4.1423175E-1,-7.264318E-2,-4.6494192E-1,3.5143363E-1,9E0,-4.888433E-2,4.794559E-2,-4.021438E-1,-5.634273E-2,-2.6512972E-1,9.453224E-2,-6.5458015E-2,6.397341E-1,-5.0087668E-2,2.0728076E-2,6.517298E-2,2.9026914E-2,-7.970272E-2,5.379386E-2,2.28909E-2,-1.3640097E-2,4.860183E-3,-1.8701201E-2,5.2746397E-2,-5.5351794E-2,5.8854025E-2,1.1700917E-2,-6.950276E-2,-2.9017767E-2,7.729682E-2,-1.1690923E-2,7.3432475E-2,-6.511386E-2],"split_indices":[4,2,1,1,1,1,2,1,0,1,1,1,4,2,0,1,1,4,0,0,1,1,0,2,0,1,1,4,0,4,1,0,1,1,2,0,0,1,0,1,1,0,1,0,0,0,0,0,0,0,0,0,0,0,0,0,0,0,0,0,0,0,0],"split_type":[0,0,0,0,0,0,0,0,0,0,0,0,0,0,0,0,0,0,0,0,0,0,0,0,0,0,0,0,0,0,0,0,0,0,0,0,0,0,0,0,0,0,0,0,0,0,0,0,0,0,0,0,0,0,0,0,0,0,0,0,0,0,0],"sum_hessian":[1.5474108E3,1.2071345E3,3.4027625E2,5.6814966E2,6.3898486E2,7.58314E1,2.6444482E2,5.62786E2,5.363683E0,2.9486896E2,3.4411594E2,3.631153E1,3.9519867E1,2.5852814E2,5.916689E0,5.259396E2,3.68464E1,2.7645486E2,1.8414087E1,1.9935349E1,3.2418057E2,9.181428E0,2.7130102E1,2.9256266E1,1.0263601E1,1.09175064E2,1.4935309E2,5.233869E2,2.5526786E0,2.2887798E1,1.3958605E1,1.3724173E1,2.627307E2,3.0448346E2,1.969713E1,2.0548723E0,7.126556E0,2.5735123E1,3.5211422E0,8.265873E1,2.6516338E1,1.1227321E2,3.7079872E1,2.1534784E0,5.2123346E2,1.5942538E1,6.9452605E0,3.1766205E0,1.0781984E1,4.7152107E1,2.155786E2,2.2808694E2,7.63965E1,1.76496E1,2.0475314E0,6.819324E0,1.89158E1,3.4677425E1,4.79813E1,1.2873128E1,1.3643211E1,6.57437E0,3.05055E1],"tree_param":{"num_deleted":"0","num_feature":"5","num_nodes":"63","size_leaf_vector":"1"}},{"base_weights":[6.2304832E-2,2.3139162E-1,-4.604297E-1,4.12401E-1,7.01132E-2,-2.8936738E-1,-8.661218E-1,5.318971E-1,2.1757072E-1,2.3682546E-2,6.492997E-1,-4.1226822E-1,7.4026287E-1,4.087023E-1,-1.0908893E0,4.423677E-1,8.9715177E-1,-1.1677485E-1,3.005825E-1,1.0451319E-1,-7.935374E-2,8.1022584E-1,-6.381947E-2,-2.714147E-1,-6.6633485E-2,8.6517006E-1,-5.1617272E-2,-6.01615E-2,7.442298E-2,-6.368423E-2,-6.9705635E-1,4.830758E-1,-6.3309216E-1,5.94611E-2,7.4272025E-1,2.1660955E-1,7.624611E-1,4.3563504E-2,7.770844E-1,1.2958218E0,3.9262387E-1,-4.454434E-1,1.2466123E0,1.2572366E0,4.7351807E-1,8.176685E-2,-6.333738E-2,-7.3767634E-4,2.6664061E-2,-1.0999618E-1,1.45621775E-2,-1.0282636E-1,4.6250362E-2,1.6582092E-2,-1.1588569E-1,4.733568E-2,-5.1202446E-2,5.4512033E-3,-8.38564E-2,5.2989822E-2,-7.3212795E-2,-4.352605E-2,7.3676005E-2,3.6580123E-2,-5.9087165E-2,-8.383094E-3,-4.3456104E-2,8.321383E-2,-5.2335586E-2,-4.4559035E-2,7.805782E-2,-6.1007597E-2,6.2417846E-2],"categories":[],"categories_nodes":[],"categories_segments":[],"categories_sizes":[],"default_left":[0,0,0,0,0,0,0,0,0,0,0,0,0,0,0,0,0,0,0,0,0,0,0,0,0,0,0,0,0,0,0,0,0,0,0,0,0,0,0,0,0,0,0,0,0,0,0,0,0,0,0,0,0,0,0,0,0,0,0,0,0,0,0,0,0,0,0,0,0,0,0,0,0],"id":19,"left_children":[1,3,5,7,9,11,13,15,17,19,21,23,25,27,29,31,33,-1,35,37,-1,39,-1,41,-1,43,-1,-1,-1,-1,45,47,49,-1,51,53,55,57,59,61,63,65,67,69,71,-1,-1,-1,-1,-1,-1,-1,-1,-1,-1,-1,-1,-1,-1,-1,-1,-1,-1,-1,-1,-1,-1,-1,-1,-1,-1,-1,-1],"loss_changes":[1.425955E2,3.5549957E1,2.7116272E1,1.3248848E1,1.7348984E1,3.559597E1,3.3815742E1,1.1215912E1,4.7311493E1,7.8131805E1,1.5873053E1,3.2021286E1,7.5569286E0,3.3438274E1,6.259102E0,1.2878681E1,2.22612E0,0E0,8.130413E0,2.33792E1,0E0,8.576553E0,0E0,5.811785E1,0E0,3.8054733E0,0E0,0E0,0E0,0E0,4.6823524E1,6.9380264E0,1.6436697E1,0E0,2.6271067E1,5.393697E1,1.1669708E1,5.9289234E1,3.158598E1,9.089691E0,1.4485266E1,2.2947163E1,2.345956E1,1.0348425E1,2.2443687E1,0E0,0E0,0E0,0E0,0E0,0E0,0E0,0E0,0E0,0E0,0E0,0E0,0E0,0E0,0E0,0E0,0E0,0E0,0E0,0E0,0E0,0E0,0E0,0E0,0E0,0E0,0E0,0E0],"parents":[2147483647,0,0,1,1,2,2,3,3,4,4,5,5,6,6,7,7,8,8,9,9,10,10,11,11,12,12,13,13,14,14,15,15,16,16,18,18,19,19,21,21,23,23,25,25,30,30,31,31,32,32,34,34,35,35,36,36,37,37,38,38,39,39,40,40,41,41,42,42,43,43,44,44],"right_children":[2,4,6,8,10,12,14,16,18,20,22,24,26,28,30,32,34,-1,36,38,-1,40,-1,42,-1,44,-1,-1,-1,-1,46,48,50,-1,52,54,56,58,60,62,64,66,68,70,72,-1,-1,-1,-1,-1,-1,-1,-1,-1,-1,-1,-1,-1,-1,-1,-1,-1,-1,-1,-1,-1,-1,-1,-1,-1,-1,-1,-1],"split_conditions":[8E0,5E0,1.2E1,-3.1456226E-1,7.082411E-1,1.3276589E0,-3.8216257E-1,-3.650358E-1,-2.8740287E-1,3.0255952E-1,1.984933E0,3.644226E-1,3.8424382E0,-4.277264E-1,6.111895E-1,-3.8216257E-1,-3.5077477E-1,-1.1677485E-1,5.832066E-1,1.5469171E-1,-7.935374E-2,7.9102045E-1,-6.381947E-2,2.9048866E-1,-6.6633485E-2,1.4732364E0,-5.1617272E-2,-6.01615E-2,7.442298E-2,-6.368423E-2,6.397341E-1,1.1111112E0,-3.6789027E-1,5.94611E-2,-3.5647243E-1,2.422053E-1,1.6544938E0,2.945673E-2,2.6E0,7.582338E-1,2.2E0,-1.6971216E-1,3.3430687E-1,1E1,2.8890486E0,8.176685E-2,-6.333738E-2,-7.3767634E-4,2.6664061E-2,-1.0999618E-1,1.45621775E-2,-1.0282636E-1,4.6250362E-2,1.6582092E-2,-1.1588569E-1,4.733568E-2,-5.1202446E-2,5.4512033E-3,-8.38564E-2,5.2989822E-2,-7.3212795E-2,-4.352605E-2,7.3676005E-2,3.6580123E-2,-5.9087165E-2,-8.383094E-3,-4.3456104E-2,8.321383E-2,-5.2335586E-2,-4.4559035E-2,7.805782E-2,-6.1007597E-2,6.2417846E-2],"split_indices":[2,2,2,3,1,1,1,1,3,3,3,3,1,3,1,1,3,0,3,3,0,1,0,3,0,1,0,0,0,0,1,4,1,0,1,3,3,3,4,3,4,3,1,2,1,0,0,0,0,0,0,0,0,0,0,0,0,0,0,0,0,0,0,0,0,0,0,0,0,0,0,0,0],"split_type":[0,0,0,0,0,0,0,0,0,0,0,0,0,0,0,0,0,0,0,0,0,0,0,0,0,0,0,0,0,0,0,0,0,0,0,0,0,0,0,0,0,0,0,0,0,0,0,0,0,0,0,0,0,0,0,0,0,0,0,0,0,0,0,0,0,0,0,0,0,0,0,0,0],"sum_hessian":[1.6110941E3,1.2177506E3,3.9334344E2,5.7304346E2,6.447072E2,2.7788498E2,1.15458466E2,3.541196E2,2.1892384E2,5.9782336E2,4.6883797E1,2.4878821E2,2.9096779E1,1.718293E1,9.8275536E1,2.8618295E2,6.7936646E1,6.039564E0,2.128843E2,5.701475E2,2.7675892E1,4.3802555E1,3.0812414E0,2.1689117E2,3.1897036E1,2.7659658E1,1.4371212E0,6.846971E0,1.03359585E1,6.5595634E1,3.26799E1,2.762762E2,9.906735E0,2.117969E1,4.6756958E1,1.8137749E2,3.150679E1,5.2374915E2,4.639837E1,1.9280174E1,2.452238E1,1.9521771E2,2.1673466E1,1.2718055E1,1.4941603E1,6.048E0,2.66319E1,2.5374317E1,2.509019E2,3.1638029E0,6.7429323E0,2.2300406E0,4.4526917E1,1.7433368E2,7.043821E0,2.8987255E1,2.5195367E0,5.054566E2,1.8292532E1,4.1669533E1,4.728839E0,1.1660337E0,1.8114141E1,2.061833E1,3.9040496E0,1.1875359E2,7.646412E1,1.8566412E1,3.1070535E0,1.3366868E0,1.1381369E1,4.5096135E0,1.043199E1],"tree_param":{"num_deleted":"0","num_feature":"5","num_nodes":"73","size_leaf_vector":"1"}},{"base_weights":[-8.743446E-3,2.2794014E-1,-5.0409913E-1,3.686804E-1,6.100837E-2,3.326603E-2,-6.2674135E-1,-5.411121E-2,3.7859708E-1,-6.8286225E-2,2.3852667E-1,-3.213605E-1,8.757104E-1,-7.1178746E-1,1.5734474E-1,4.7076443E-1,2.432519E-1,-3.0421048E-1,1.9235031E-1,3.4433353E-1,-6.906935E-1,1.1408816E-1,-6.358496E-2,4.5010933E-1,7.514499E-2,-7.640291E-1,3.0705225E-1,6.210852E-1,-5.925871E-2,4.182389E-1,9.307165E-1,-1.1748235E0,3.5209656E-1,1.0209616E-1,-8.2038593E-1,5.139794E-1,-1.548174E-1,-6.144085E-1,4.6359062E-1,-8.301105E-2,1.20372154E-1,-6.403896E-2,3.098571E-1,7.712322E-1,-6.613424E-2,-4.3599018E-1,-9.019827E-1,-5.682801E-2,8.47413E-1,1.1978577E0,1.5721774E-1,-4.5167902E-4,2.2796288E-2,5.8219083E-2,3.908224E-2,-1.115101E-2,-1.19991444E-1,-2.9008097E-3,2.3265582E-2,-1.5349924E-2,2.6741073E-2,-8.035101E-2,-2.088202E-2,2.9428855E-2,-5.6593597E-2,-1.910735E-2,3.2379534E-2,1.840277E-2,-7.689162E-2,4.316319E-2,1.0499031E-2,8.252932E-2,-6.641748E-2,2.403244E-2,-6.535243E-2,5.067526E-2,-4.753932E-2,-6.7581534E-2,2.0110344E-3,-6.8038344E-2,-3.9108455E-2,6.364623E-2,-4.764196E-2,-4.1169744E-2,7.2186634E-2,-5.988411E-2,3.890794E-2],"categories":[],"categories_nodes":[],"categories_segments":[],"categories_sizes":[],"default_left":[0,0,0,0,0,0,0,0,0,0,0,0,0,0,0,0,0,0,0,0,0,0,0,0,0,0,0,0,0,0,0,0,0,0,0,0,0,0,0,0,0,0,0,0,0,0,0,0,0,0,0,0,0,0,0,0,0,0,0,0,0,0,0,0,0,0,0,0,0,0,0,0,0,0,0,0,0,0,0,0,0,0,0,0,0,0,0],"id":20,"left_children":[1,3,5,7,9,11,13,-1,15,17,19,21,23,25,27,29,31,33,35,37,39,41,-1,43,-1,45,47,49,-1,51,53,55,57,59,61,63,65,67,69,-1,71,-1,73,75,-1,77,79,-1,81,83,85,-1,-1,-1,-1,-1,-1,-1,-1,-1,-1,-1,-1,-1,-1,-1,-1,-1,-1,-1,-1,-1,-1,-1,-1,-1,-1,-1,-1,-1,-1,-1,-1,-1,-1,-1,-1],"loss_changes":[1.8180275E2,2.4630291E1,3.3061874E1,8.598389E0,1.1060763E1,2.8397327E1,2.7335037E1,0E0,6.9460297E0,1.7226133E1,2.0196758E1,2.7855757E1,6.8372383E0,1.9847061E1,2.6116364E1,7.7195663E0,3.612436E1,3.0898802E1,1.4959408E1,2.1199213E1,1.6780054E1,1.3187237E1,0E0,1.1379159E1,0E0,1.5481491E1,1.5539263E1,8.093841E0,0E0,4.884102E0,2.5972557E-1,1.8963154E1,1.0039324E1,1.4875775E1,1.9866608E1,9.187691E0,1.2077696E1,1.9314886E1,1.6366241E1,0E0,2.9710642E1,0E0,1.2193386E1,7.654523E0,0E0,4.618051E1,1.2458267E1,0E0,1.206692E1,7.971302E0,1.6335081E1,0E0,0E0,0E0,0E0,0E0,0E0,0E0,0E0,0E0,0E0,0E0,0E0,0E0,0E0,0E0,0E0,0E0,0E0,0E0,0E0,0E0,0E0,0E0,0E0,0E0,0E0,0E0,0E0,0E0,0E0,0E0,0E0,0E0,0E0,0E0,0E0],"parents":[2147483647,0,0,1,1,2,2,3,3,4,4,5,5,6,6,8,8,9,9,10,10,11,11,12,12,13,13,14,14,15,15,16,16,17,17,18,18,19,19,20,20,21,21,23,23,25,25,26,26,27,27,29,29,30,30,31,31,32,32,33,33,34,34,35,35,36,36,37,37,38,38,40,40,42,42,43,43,45,45,46,46,48,48,49,49,50,50],"right_children":[2,4,6,8,10,12,14,-1,16,18,20,22,24,26,28,30,32,34,36,38,40,42,-1,44,-1,46,48,50,-1,52,54,56,58,60,62,64,66,68,70,-1,72,-1,74,76,-1,78,80,-1,82,84,86,-1,-1,-1,-1,-1,-1,-1,-1,-1,-1,-1,-1,-1,-1,-1,-1,-1,-1,-1,-1,-1,-1,-1,-1,-1,-1,-1,-1,-1,-1,-1,-1,-1,-1,-1,-1],"split_conditions":[7E0,5E0,-3.8216257E-1,1E0,2.6E0,-3.9072594E-1,1.3276589E0,-5.411121E-2,-3.3934566E-1,-2.451485E-1,-1.3097009E-1,3.6E0,6.25E0,5E0,1.2E1,-3.5361797E-1,-3.108011E-1,-3.935804E-1,3E0,-4.363973E-1,9.453224E-2,2.75E0,-6.358496E-2,-3.8501704E-1,7.514499E-2,-2.1945836E-1,5.683726E-1,1.4732364E0,-5.925871E-2,1.1111112E0,-3.507635E-1,-3.2792783E-1,-2.5656635E-1,-4.2783394E-1,-3.3934566E-1,7.367857E-1,1.2134806E0,-4.735053E-1,-3.7645367E-1,-8.301105E-2,1.0024116E-1,-6.403896E-2,-4.021438E-1,9E0,-6.613424E-2,-3.108011E-1,3E0,-5.682801E-2,7.082411E-1,1E1,2.8890486E0,-4.5167902E-4,2.2796288E-2,5.8219083E-2,3.908224E-2,-1.115101E-2,-1.19991444E-1,-2.9008097E-3,2.3265582E-2,-1.5349924E-2,2.6741073E-2,-8.035101E-2,-2.088202E-2,2.9428855E-2,-5.6593597E-2,-1.910735E-2,3.2379534E-2,1.840277E-2,-7.689162E-2,4.316319E-2,1.0499031E-2,8.252932E-2,-6.641748E-2,2.403244E-2,-6.535243E-2,5.067526E-2,-4.753932E-2,-6.7581534E-2,2.0110344E-3,-6.8038344E-2,-3.9108455E-2,6.364623E-2,-4.764196E-2,-4.1169744E-2,7.2186634E-2,-5.988411E-2,3.890794E-2],"split_indices":[2,2,1,4,4,1,1,0,1,1,1,4,4,0,2,1,1,1,0,1,1,4,0,1,0,1,1,1,0,4,1,1,1,1,1,1,1,1,1,0,1,0,1,2,0,1,0,0,1,2,1,0,0,0,0,0,0,0,0,0,0,0,0,0,0,0,0,0,0,0,0,0,0,0,0,0,0,0,0,0,0,0,0,0,0,0,0],"split_type":[0,0,0,0,0,0,0,0,0,0,0,0,0,0,0,0,0,0,0,0,0,0,0,0,0,0,0,0,0,0,0,0,0,0,0,0,0,0,0,0,0,0,0,0,0,0,0,0,0,0,0,0,0,0,0,0,0,0,0,0,0,0,0,0,0,0,0,0,0,0,0,0,0,0,0,0,0,0,0,0,0,0,0,0,0,0,0],"sum_hessian":[1.5486748E3,1.0483212E3,5.003536E2,5.681256E2,4.801956E2,9.311084E1,4.0724277E2,3.1226351E0,5.65003E2,2.781915E2,2.020041E2,6.59625E1,2.714834E1,3.6747653E2,3.976626E1,3.3464096E2,2.3036203E2,1.4593036E2,1.3226114E2,1.8191908E2,2.0085012E1,4.5838898E1,2.01236E1,1.7196629E1,9.95171E0,3.497909E2,1.7685629E1,2.9956045E1,9.810212E0,3.0205612E2,3.258484E1,1.5722955E1,2.1463907E2,8.21043E1,6.3826054E1,6.840641E1,6.385473E1,1.9666054E1,1.6225304E2,8.67189E0,1.1413123E1,4.959539E0,4.087936E1,1.5037677E1,2.158953E0,1.0478468E2,2.4500621E2,4.5164013E0,1.3169228E1,1.2647644E1,1.7308401E1,2.4544527E1,2.775116E2,1.0038669E1,2.2546171E1,9.513344E0,6.209611E0,4.653981E1,1.6809926E2,4.235387E1,3.9750427E1,2.0600136E1,4.322592E1,6.605488E1,2.3515315E0,5.0165993E1,1.3688738E1,9.8198185E0,9.846235E0,6.205477E1,1.0019826E2,5.4826875E0,5.9304357E0,3.760946E1,3.269903E0,1.3543647E1,1.4940299E0,3.5222282E1,6.95624E1,4.8590107E1,1.964161E2,1.0888513E1,2.280714E0,1.116928E0,1.1530716E1,5.1475577E0,1.2160843E1],"tree_param":{"num_deleted":"0","num_feature":"5","num_nodes":"87","size_leaf_vector":"1"}},{"base_weights":[-3.959979E-2,3.5294363E-1,-3.672877E-1,4.2911395E-1,1.0823181E-1,6.008633E-3,-5.262411E-1,4.8747444E-1,-3.2379696E-1,-1.1108826E0,2.3670216E-1,-2.645455E-1,4.5396382E-1,-4.3026823E-1,-1.0399363E0,-4.768371E-2,4.955227E-1,-7.133397E-2,2.4628174E-1,-2.7634832E-1,-1.10125676E-1,4.101843E-2,1.0117501E0,-1.1382558E-1,-8.835443E-2,-6.060859E-1,6.8923837E-1,-7.2000965E-2,-3.7269148E-1,-3.944239E-1,-6.2731355E-2,4.5643458E-1,7.6188076E-1,-7.5195044E-2,5.809482E-1,-1.0015503E-1,6.370049E-2,-9.4892584E-2,1.5990858E-1,1.2139937E0,-5.3017117E-2,1.4480606E-1,-8.819631E-1,1.1592658E-1,-7.34434E-2,9.2511564E-1,1.0265987E-1,-1.082846E0,-2.9551023E-1,-6.2061764E-2,9.879385E-2,2.3886882E-2,-1.0427653E-1,4.7199123E-2,2.4694541E-2,3.7834052E-2,-5.9464525E-2,4.645283E-2,-2.32946E-3,3.553705E-2,6.635336E-2,-6.684462E-3,2.922218E-2,9.4442265E-3,-6.670853E-2,-8.164944E-2,6.839579E-2,6.4343505E-2,3.948574E-2,-6.0285617E-2,3.221382E-2,-3.3025585E-2,-7.389654E-2,2.2700274E-2,-1.742605E-2],"categories":[],"categories_nodes":[],"categories_segments":[],"categories_sizes":[],"default_left":[0,0,0,0,0,0,0,0,0,0,0,0,0,0,0,0,0,0,0,0,0,0,0,0,0,0,0,0,0,0,0,0,0,0,0,0,0,0,0,0,0,0,0,0,0,0,0,0,0,0,0,0,0,0,0,0,0,0,0,0,0,0,0,0,0,0,0,0,0,0,0,0,0,0,0],"id":21,"left_children":[1,3,5,7,9,11,13,15,17,19,21,23,25,27,29,-1,31,-1,33,35,-1,37,39,41,-1,43,45,-1,47,49,-1,51,53,-1,55,-1,-1,-1,57,59,-1,61,63,65,-1,67,69,71,73,-1,-1,-1,-1,-1,-1,-1,-1,-1,-1,-1,-1,-1,-1,-1,-1,-1,-1,-1,-1,-1,-1,-1,-1,-1,-1],"loss_changes":[1.9515839E2,1.2821251E1,4.906539E1,2.3276009E1,2.613776E1,3.0167177E1,2.814325E1,6.1406326E0,2.452536E1,1.38995285E1,2.2750914E1,3.4945595E1,2.3792435E1,2.7970695E1,1.2058891E1,0E0,4.718689E0,0E0,1.6219666E1,2.97754E1,0E0,2.8202383E1,1.3964935E1,2.836166E1,0E0,1.1106169E1,1.0581955E1,0E0,2.5179893E1,5.075935E1,0E0,2.4110611E1,2.4998817E0,0E0,7.966463E0,0E0,0E0,0E0,1.8301996E1,6.517334E-1,0E0,1.3200869E1,1.7655348E1,2.519019E1,0E0,1.6733894E0,1.7256954E1,6.570961E0,1.6885773E1,0E0,0E0,0E0,0E0,0E0,0E0,0E0,0E0,0E0,0E0,0E0,0E0,0E0,0E0,0E0,0E0,0E0,0E0,0E0,0E0,0E0,0E0,0E0,0E0,0E0,0E0],"parents":[2147483647,0,0,1,1,2,2,3,3,4,4,5,5,6,6,7,7,8,8,9,9,10,10,11,11,12,12,13,13,14,14,16,16,18,18,19,19,21,21,22,22,23,23,25,25,26,26,28,28,29,29,31,31,32,32,34,34,38,38,39,39,41,41,42,42,43,43,45,45,46,46,47,47,48,48],"right_children":[2,4,6,8,10,12,14,16,18,20,22,24,26,28,30,-1,32,-1,34,36,-1,38,40,42,-1,44,46,-1,48,50,-1,52,54,-1,56,-1,-1,-1,58,60,-1,62,64,66,-1,68,70,72,74,-1,-1,-1,-1,-1,-1,-1,-1,-1,-1,-1,-1,-1,-1,-1,-1,-1,-1,-1,-1,-1,-1,-1,-1,-1,-1],"split_conditions":[2.3333333E0,-8.6725116E-2,-3.7642533E-1,5E0,-1.4300071E-2,-4.1867325E-1,4.1666665E0,1E0,-3.1908882E-1,-5.3530306E-2,4E0,-4.4130608E-1,2.8E0,2.5E0,-2.5119033E-1,-4.768371E-2,-1.8329185E-1,-7.133397E-2,6E0,-6.107458E-2,-1.10125676E-1,1.4E0,9E0,3.2E0,-8.835443E-2,-4.00567E-1,8E0,-7.2000965E-2,-3.1456226E-1,-2.6024348E-1,-6.2731355E-2,-1.9687155E-1,-1.4255276E-1,-7.5195044E-2,-1.5160589E-1,-1.0015503E-1,6.370049E-2,-9.4892584E-2,2.945673E-2,3.734757E-1,-5.3017117E-2,-4.7299203E-1,-5.499437E-1,-4.0509355E-1,-7.34434E-2,-4.141467E-1,-3.9151385E-1,-3.5077477E-1,-2.9645598E-1,-6.2061764E-2,9.879385E-2,2.3886882E-2,-1.0427653E-1,4.7199123E-2,2.4694541E-2,3.7834052E-2,-5.9464525E-2,4.645283E-2,-2.32946E-3,3.553705E-2,6.635336E-2,-6.684462E-3,2.922218E-2,9.4442265E-3,-6.670853E-2,-8.164944E-2,6.839579E-2,6.4343505E-2,3.948574E-2,-6.0285617E-2,3.221382E-2,-3.3025585E-2,-7.389654E-2,2.2700274E-2,-1.742605E-2],"split_indices":[4,3,3,2,3,3,4,4,3,3,0,3,4,4,3,0,3,0,2,3,0,4,2,4,0,3,2,0,3,3,0,3,3,0,3,0,0,0,3,3,0,3,3,3,0,3,3,3,3,0,0,0,0,0,0,0,0,0,0,0,0,0,0,0,0,0,0,0,0,0,0,0,0,0,0],"split_type":[0,0,0,0,0,0,0,0,0,0,0,0,0,0,0,0,0,0,0,0,0,0,0,0,0,0,0,0,0,0,0,0,0,0,0,0,0,0,0,0,0,0,0,0,0,0,0,0,0,0,0,0,0,0,0,0,0,0,0,0,0,0,0,0,0,0,0,0,0,0,0,0,0,0,0],"sum_hessian":[1.5151792E3,6.8933496E2,8.2584424E2,5.2512744E2,1.6420753E2,2.4692114E2,5.789231E2,4.876785E2,3.7448944E1,1.4925507E1,1.4928203E2,1.5419844E2,9.272271E1,4.8933835E2,8.958475E1,2.0558603E0,4.8562265E2,1.2249085E1,